{"learner":{"attributes":{"scikit_learn":"{\"_estimator_type\": \"classifier\"}"},"feature_names":[],"feature_types":[],"gradient_booster":{"model":{"gbtree_model_param":{"num_parallel_tree":"1","num_trees":"300"},"iteration_indptr":[0,3,6,9,12,15,18,21,24,27,30,33,36,39,42,45,48,51,54,57,60,63,66,69,72,75,78,81,84,87,90,93,96,99,102,105,108,111,114,117,120,123,126,129,132,135,138,141,144,147,150,153,156,159,162,165,168,171,174,177,180,183,186,189,192,195,198,201,204,207,210,213,216,219,222,225,228,231,234,237,240,243,246,249,252,255,258,261,264,267,270,273,276,279,282,285,288,291,294,297,300],"tree_info":[0,1,2,0,1,2,0,1,2,0,1,2,0,1,2,0,1,2,0,1,2,0,1,2,0,1,2,0,1,2,0,1,2,0,1,2,0,1,2,0,1,2,0,1,2,0,1,2,0,1,2,0,1,2,0,1,2,0,1,2,0,1,2,0,1,2,0,1,2,0,1,2,0,1,2,0,1,2,0,1,2,0,1,2,0,1,2,0,1,2,0,1,2,0,1,2,0,1,2,0,1,2,0,1,2,0,1,2,0,1,2,0,1,2,0,1,2,0,1,2,0,1,2,0,1,2,0,1,2,0,1,2,0,1,2,0,1,2,0,1,2,0,1,2,0,1,2,0,1,2,0,1,2,0,1,2,0,1,2,0,1,2,0,1,2,0,1,2,0,1,2,0,1,2,0,1,2,0,1,2,0,1,2,0,1,2,0,1,2,0,1,2,0,1,2,0,1,2,0,1,2,0,1,2,0,1,2,0,1,2,0,1,2,0,1,2,0,1,2,0,1,2,0,1,2,0,1,2,0,1,2,0,1,2,0,1,2,0,1,2,0,1,2,0,1,2,0,1,2,0,1,2,0,1,2,0,1,2,0,1,2,0,1,2,0,1,2,0,1,2,0,1,2,0,1,2,0,1,2,0,1,2,0,1,2,0,1,2,0,1,2,0,1,2,0,1,2,0,1,2],"trees":[{"base_weights":[-3.6395192E-2,-6.836462E-1,1.0985916E0,-7.063713E-2,-2.5544848E-9,-3.658537E-1,1.3756906E0,-5.1724143E-2,-2.5544848E-9,4.285714E-2,1.4201184E-1],"categories":[],"categories_nodes":[],"categories_segments":[],"categories_sizes":[],"default_left":[0,0,0,0,0,0,0,0,0,0,0],"id":0,"left_children":[1,3,5,-1,-1,7,9,-1,-1,-1,-1],"loss_changes":[4.7848427E1,6.43877E-1,1.0107149E1,0E0,0E0,2.5231284E-1,2.376213E-1,0E0,0E0,0E0,0E0],"parents":[2147483647,0,0,1,1,2,2,5,5,6,6],"right_children":[2,4,6,-1,-1,8,10,-1,-1,-1,-1],"split_conditions":[7.6E2,2.8E0,2.37E0,-7.063713E-2,-2.5544848E-9,1.251E1,1.303E1,-5.1724143E-2,-2.5544848E-9,4.285714E-2,1.4201184E-1],"split_indices":[12,2,6,0,0,0,0,0,0,0,0],"split_type":[0,0,0,0,0,0,0,0,0,0,0],"sum_hessian":[6.3111107E1,4.0444443E1,2.2666666E1,3.9111107E1,1.3333333E0,3.5555553E0,1.911111E1,2.222222E0,1.3333333E0,1.3333333E0,1.7777777E1],"tree_param":{"num_deleted":"0","num_feature":"13","num_nodes":"11","size_leaf_vector":"1"}},{"base_weights":[1.5077986E-1,1.313364E0,-5.3658545E-1,1.3902439E0,-2.5544848E-9,6.486486E-1,-6.510264E-1,1.4300518E-1,4.285714E-2,9.6E-2,-2.5544848E-9,-3.5762788E-9,-7.278689E-2],"categories":[],"categories_nodes":[],"categories_segments":[],"categories_sizes":[],"default_left":[0,0,0,0,0,0,0,0,0,0,0,0,0],"id":1,"left_children":[1,3,5,7,-1,9,11,-1,-1,-1,-1,-1,-1],"loss_changes":[5.1937202E1,2.4345284E0,5.9835024E0,2.5910187E-1,0E0,8.302702E-1,1.8954449E0,0E0,0E0,0E0,0E0,0E0,0E0],"parents":[2147483647,0,0,1,1,2,2,3,3,5,5,6,6],"right_children":[2,4,6,8,-1,10,12,-1,-1,-1,-1,-1,-1],"split_conditions":[3.84E0,9.7E2,4.66E2,2.75E0,-2.5544848E-9,1.267E1,8.9E1,1.4300518E-1,4.285714E-2,9.6E-2,-2.5544848E-9,-3.5762788E-9,-7.278689E-2],"split_indices":[9,12,12,2,0,0,4,0,0,0,0,0,0],"split_type":[0,0,0,0,0,0,0,0,0,0,0,0,0],"sum_hessian":[6.3111107E1,2.311111E1,3.9999996E1,2.1777777E1,1.3333333E0,3.111111E0,3.6888885E1,2.0444443E1,1.3333333E0,1.7777777E0,1.3333333E0,3.9999998E0,3.2888885E1],"tree_param":{"num_deleted":"0","num_feature":"13","num_nodes":"13","size_leaf_vector":"1"}},{"base_weights":[-1.1438479E-1,1.1116751E0,-7.326479E-2,-5.1724143E-2,1.3220339E0,1.4181818E-1,-2.5544848E-9],"categories":[],"categories_nodes":[],"categories_segments":[],"categories_sizes":[],"default_left":[0,0,0,0,0,0,0],"id":2,"left_children":[1,3,-1,-1,5,-1,-1],"loss_changes":[4.9412453E1,8.184189E0,0E0,0E0,2.4998474E0,0E0,0E0],"parents":[2147483647,0,0,1,1,4,4],"right_children":[2,4,-1,-1,6,-1,-1],"split_conditions":[2.23E0,3.84E0,-7.326479E-2,-5.1724143E-2,1.39E0,1.4181818E-1,-2.5544848E-9],"split_indices":[11,9,0,0,6,0,0],"split_type":[0,0,0,0,0,0,0],"sum_hessian":[6.3111107E1,2.0888887E1,4.222222E1,2.222222E0,1.8666666E1,1.7333332E1,1.3333333E0],"tree_param":{"num_deleted":"0","num_feature":"13","num_nodes":"7","size_leaf_vector":"1"}},{"base_weights":[-3.426015E-2,-6.573647E-1,9.737047E-1,-6.7981295E-2,-6.878087E-4,-5.2823503E-2,1.1736156E0,1.2525572E-1,-1.9883304E-3],"categories":[],"categories_nodes":[],"categories_segments":[],"categories_sizes":[],"default_left":[0,0,0,0,0,0,0,0,0],"id":3,"left_children":[1,3,5,-1,-1,-1,7,-1,-1],"loss_changes":[4.0653965E1,5.7894707E-1,8.048674E0,0E0,0E0,0E0,2.1113834E0,0E0,0E0],"parents":[2147483647,0,0,1,1,2,2,6,6],"right_children":[2,4,6,-1,-1,-1,8,-1,-1],"split_conditions":[7.6E2,2.8E0,2.17E0,-6.7981295E-2,-6.878087E-4,-5.2823503E-2,1.32E2,1.2525572E-1,-1.9883304E-3],"split_indices":[12,2,6,0,0,0,4,0,0],"split_type":[0,0,0,0,0,0,0,0,0],"sum_hessian":[6.2709526E1,3.8968052E1,2.3741474E1,3.7624554E1,1.3434998E0,2.595912E0,2.1145563E1,1.9787289E1,1.3582731E0],"tree_param":{"num_deleted":"0","num_feature":"13","num_nodes":"9","size_leaf_vector":"1"}},{"base_weights":[1.4037699E-1,1.1565646E0,-5.1163536E-1,1.2194926E0,6.3338905E-4,6.043708E-1,-6.2534803E-1,1.2504692E-1,4.0479418E-2,-8.5817603E-4,8.966513E-2,2.9016842E-4,-7.02208E-2],"categories":[],"categories_nodes":[],"categories_segments":[],"categories_sizes":[],"default_left":[0,0,0,0,0,0,0,0,0,0,0,0,0],"id":4,"left_children":[1,3,5,7,-1,9,11,-1,-1,-1,-1,-1,-1],"loss_changes":[4.3144474E1,1.8313866E0,5.4306936E0,1.0165024E-1,0E0,7.5840235E-1,1.7705688E0,0E0,0E0,0E0,0E0,0E0,0E0],"parents":[2147483647,0,0,1,1,2,2,3,3,5,5,6,6],"right_children":[2,4,6,8,-1,10,12,-1,-1,-1,-1,-1,-1],"split_conditions":[3.84E0,9.7E2,4.66E2,2.75E0,6.3338905E-4,7.2E-1,8.9E1,1.2504692E-1,4.0479418E-2,-8.5817603E-4,8.966513E-2,2.9016842E-4,-7.02208E-2],"split_indices":[9,12,12,2,0,10,4,0,0,0,0,0,0],"split_type":[0,0,0,0,0,0,0,0,0,0,0,0,0],"sum_hessian":[6.3224064E1,2.4408535E1,3.881553E1,2.3085344E1,1.323191E0,3.1902895E0,3.5625237E1,2.1724443E1,1.3609006E0,1.3434753E0,1.8468142E0,3.988191E0,3.1637047E1],"tree_param":{"num_deleted":"0","num_feature":"13","num_nodes":"13","size_leaf_vector":"1"}},{"base_weights":[-1.07619606E-1,9.880354E-1,-7.070963E-2,-4.9628105E-2,1.1658771E0,1.2479277E-1,-8.650973E-4],"categories":[],"categories_nodes":[],"categories_segments":[],"categories_sizes":[],"default_left":[0,0,0,0,0,0,0],"id":5,"left_children":[1,3,-1,-1,5,-1,-1],"loss_changes":[4.2400818E1,6.6158047E0,0E0,0E0,2.0077934E0,0E0,0E0],"parents":[2147483647,0,0,1,1,4,4],"right_children":[2,4,-1,-1,6,-1,-1],"split_conditions":[2.23E0,3.84E0,-7.070963E-2,-4.9628105E-2,1.39E0,1.2479277E-1,-8.650973E-4],"split_indices":[11,9,0,0,6,0,0],"split_type":[0,0,0,0,0,0,0],"sum_hessian":[6.2491074E1,2.1870502E1,4.062057E1,2.1484408E0,1.9722061E1,1.8375862E1,1.3461989E0],"tree_param":{"num_deleted":"0","num_feature":"13","num_nodes":"7","size_leaf_vector":"1"}},{"base_weights":[-3.2965235E-2,-6.33756E-1,8.7620187E-1,-6.560691E-2,-1.2709446E-3,-5.07493E-2,1.0494636E0,-2.6522938E-3,1.1187911E-1],"categories":[],"categories_nodes":[],"categories_segments":[],"categories_sizes":[],"default_left":[0,0,0,0,0,0,0,0,0],"id":6,"left_children":[1,3,5,-1,-1,-1,7,-1,-1],"loss_changes":[3.4849167E1,5.235586E-1,6.6221714E0,0E0,0E0,0E0,1.7379036E0,0E0,0E0],"parents":[2147483647,0,0,1,1,2,2,6,6],"right_children":[2,4,6,-1,-1,-1,8,-1,-1],"split_conditions":[7.6E2,2.8E0,2.17E0,-6.560691E-2,-1.2709446E-3,-5.07493E-2,3.6E0,-2.6522938E-3,1.1187911E-1],"split_indices":[12,2,6,0,0,0,9,0,0],"split_type":[0,0,0,0,0,0,0,0,0],"sum_hessian":[6.1784084E1,3.7383472E1,2.4400612E1,3.60325E1,1.3509734E0,2.5006874E0,2.1899925E1,1.3630064E0,2.0536919E1],"tree_param":{"num_deleted":"0","num_feature":"13","num_nodes":"9","size_leaf_vector":"1"}},{"base_weights":[1.3208659E-1,1.0380448E0,-4.8855102E-1,1.0918255E0,1.0886723E-3,5.655933E-1,-6.0174525E-1,1.1171972E-1,3.832318E-2,8.3342694E-2,-9.2416164E-4,2.35942E-2,-6.5336905E-2],"categories":[],"categories_nodes":[],"categories_segments":[],"categories_sizes":[],"default_left":[0,0,0,0,0,0,0,0,0,0,0,0,0],"id":7,"left_children":[1,3,5,7,-1,9,11,-1,-1,-1,-1,-1,-1],"loss_changes":[3.6338627E1,1.4369793E0,4.934082E0,1.9744873E-2,0E0,6.618146E-1,1.6785202E0,0E0,0E0,0E0,0E0,0E0,0E0],"parents":[2147483647,0,0,1,1,2,2,3,3,5,5,6,6],"right_children":[2,4,6,8,-1,10,12,-1,-1,-1,-1,-1,-1],"split_conditions":[3.84E0,9.7E2,4.66E2,2.75E0,1.0886723E-3,1.57E0,8.7E1,1.1171972E-1,3.832318E-2,8.3342694E-2,-9.2416164E-4,2.35942E-2,-6.5336905E-2],"split_indices":[9,12,12,2,0,1,4,0,0,0,0,0,0],"split_type":[0,0,0,0,0,0,0,0,0,0,0,0,0],"sum_hessian":[6.2726288E1,2.5227951E1,3.7498333E1,2.3912943E1,1.3150097E0,3.2485838E0,3.4249752E1,2.2529613E1,1.3833282E0,1.9091817E0,1.3394022E0,1.780911E0,3.2468838E1],"tree_param":{"num_deleted":"0","num_feature":"13","num_nodes":"13","size_leaf_vector":"1"}},{"base_weights":[-1.0178903E-1,8.918427E-1,-6.841825E-2,-4.7663257E-2,1.0464306E0,1.1191187E-1,-1.6259694E-3],"categories":[],"categories_nodes":[],"categories_segments":[],"categories_sizes":[],"default_left":[0,0,0,0,0,0,0],"id":8,"left_children":[1,3,-1,-1,5,-1,-1],"loss_changes":[3.6697693E1,5.4656677E0,0E0,0E0,1.6718998E0,0E0,0E0],"parents":[2147483647,0,0,1,1,4,4],"right_children":[2,4,-1,-1,6,-1,-1],"split_conditions":[2.23E0,3.84E0,-6.841825E-2,-4.7663257E-2,1.39E0,1.1191187E-1,-1.6259694E-3],"split_indices":[11,9,0,0,6,0,0],"split_type":[0,0,0,0,0,0,0],"sum_hessian":[6.136128E1,2.2478674E1,3.8882603E1,2.070094E0,2.0408579E1,1.9052301E1,1.3562789E0],"tree_param":{"num_deleted":"0","num_feature":"13","num_nodes":"7","size_leaf_vector":"1"}},{"base_weights":[-3.202752E-2,-6.1262524E-1,7.999583E-1,-6.347554E-2,-2.2286193E-3,-4.878542E-2,9.5370233E-1,1.01804785E-1,-4.2621596E-3],"categories":[],"categories_nodes":[],"categories_segments":[],"categories_sizes":[],"default_left":[0,0,0,0,0,0,0,0,0],"id":9,"left_children":[1,3,5,-1,-1,-1,7,-1,-1],"loss_changes":[3.0155096E1,4.657936E-1,5.5487843E0,0E0,0E0,0E0,1.5355453E0,0E0,0E0],"parents":[2147483647,0,0,1,1,2,2,6,6],"right_children":[2,4,6,-1,-1,-1,8,-1,-1],"split_conditions":[7.6E2,2.8E0,2.17E0,-6.347554E-2,-2.2286193E-3,-4.878542E-2,1.32E2,1.01804785E-1,-4.2621596E-3],"split_indices":[12,2,6,0,0,0,4,0,0],"split_type":[0,0,0,0,0,0,0,0,0],"sum_hessian":[6.0412025E1,3.5736866E1,2.467516E1,3.4373077E1,1.3637908E0,2.3998709E0,2.2275288E1,2.0903477E1,1.3718112E0],"tree_param":{"num_deleted":"0","num_feature":"13","num_nodes":"9","size_leaf_vector":"1"}},{"base_weights":[1.2544544E-1,9.4470614E-1,-4.668195E-1,9.9196523E-1,1.5623686E-3,5.31648E-1,-5.7965595E-1,1.0146717E-1,3.5527516E-2,-1.4492898E-3,7.840191E-2,2.012823E-3,-6.588066E-2],"categories":[],"categories_nodes":[],"categories_segments":[],"categories_sizes":[],"default_left":[0,0,0,0,0,0,0,0,0,0,0,0,0],"id":10,"left_children":[1,3,5,7,-1,9,11,-1,-1,-1,-1,-1,-1],"loss_changes":[3.0870445E1,1.154398E0,4.4844112E0,5.8345795E-3,0E0,6.020107E-1,1.6170492E0,0E0,0E0,0E0,0E0,0E0,0E0],"parents":[2147483647,0,0,1,1,2,2,3,3,5,5,6,6],"right_children":[2,4,6,8,-1,10,12,-1,-1,-1,-1,-1,-1],"split_conditions":[3.84E0,9.7E2,4.66E2,2.75E0,1.5623686E-3,7.2E-1,8.9E1,1.0146717E-1,3.5527516E-2,-1.4492898E-3,7.840191E-2,2.012823E-3,-6.588066E-2],"split_indices":[9,12,12,2,0,10,4,0,0,0,0,0,0],"split_type":[0,0,0,0,0,0,0,0,0,0,0,0,0],"sum_hessian":[6.171274E1,2.5644487E1,3.6068253E1,2.4338778E1,1.3057092E0,3.2853312E0,3.2782925E1,2.2927443E1,1.4113355E0,1.3362364E0,1.9490949E0,3.9087896E0,2.8874132E1],"tree_param":{"num_deleted":"0","num_feature":"13","num_nodes":"13","size_leaf_vector":"1"}},{"base_weights":[-9.701512E-2,8.1493163E-1,-6.637655E-2,-4.5809917E-2,9.522368E-1,1.0183002E-1,-2.1686223E-3],"categories":[],"categories_nodes":[],"categories_segments":[],"categories_sizes":[],"default_left":[0,0,0,0,0,0,0],"id":11,"left_children":[1,3,-1,-1,5,-1,-1],"loss_changes":[3.1973854E1,4.5890636E0,0E0,0E0,1.4228001E0,0E0,0E0],"parents":[2147483647,0,0,1,1,4,4],"right_children":[2,4,-1,-1,6,-1,-1],"split_conditions":[2.23E0,3.84E0,-6.637655E-2,-4.5809917E-2,1.39E0,1.0183002E-1,-2.1686223E-3],"split_indices":[11,9,0,0,6,0,0],"split_type":[0,0,0,0,0,0,0],"sum_hessian":[5.9816803E1,2.2758556E1,3.7058247E1,1.9882302E0,2.0770327E1,1.9408255E1,1.3620716E0],"tree_param":{"num_deleted":"0","num_feature":"13","num_nodes":"7","size_leaf_vector":"1"}},{"base_weights":[-3.136729E-2,-5.932563E-1,7.378024E-1,-6.418998E-2,-2.3697276E-1,-4.6947896E-2,8.7672114E-1,-5.3269923E-2,4.4691917E-2,9.3646035E-2,-4.7219833E-3],"categories":[],"categories_nodes":[],"categories_segments":[],"categories_sizes":[],"default_left":[0,0,0,0,0,0,0,0,0,0,0],"id":12,"left_children":[1,3,5,-1,7,-1,9,-1,-1,-1,-1],"loss_changes":[2.6225786E1,4.5506954E-1,4.7107897E0,0E0,1.4098603E0,0E0,1.332346E0,0E0,0E0,0E0,0E0],"parents":[2147483647,0,0,1,1,2,2,4,4,6,6],"right_children":[2,4,6,-1,8,-1,10,-1,-1,-1,-1],"split_conditions":[7.6E2,2.63E0,2.17E0,-6.418998E-2,1.307E1,-4.6947896E-2,1.32E2,-5.3269923E-2,4.4691917E-2,9.3646035E-2,-4.7219833E-3],"split_indices":[12,6,6,0,0,0,4,0,0,0,0],"split_type":[0,0,0,0,0,0,0,0,0,0,0],"sum_hessian":[5.8668667E1,3.403462E1,2.4634048E1,2.9240719E1,4.7938986E0,2.296516E0,2.2337532E1,3.5010583E0,1.2928402E0,2.096824E1,1.3692918E0],"tree_param":{"num_deleted":"0","num_feature":"13","num_nodes":"11","size_leaf_vector":"1"}},{"base_weights":[1.19773634E-1,8.223319E-1,-4.8754382E-1,9.1028327E-1,-4.226614E-2,6.8021394E-2,-5.622835E-1,9.302482E-2,3.0746145E-2,4.258686E-3,-6.439288E-2],"categories":[],"categories_nodes":[],"categories_segments":[],"categories_sizes":[],"default_left":[0,0,0,0,0,0,0,0,0,0,0],"id":13,"left_children":[1,3,5,7,-1,-1,9,-1,-1,-1,-1],"loss_changes":[2.655228E1,3.5371552E0,3.3064103E0,4.1427612E-2,0E0,0E0,1.6094017E0,0E0,0E0,0E0,0E0],"parents":[2147483647,0,0,1,1,2,2,3,3,6,6],"right_children":[2,4,6,8,-1,-1,10,-1,-1,-1,-1],"split_conditions":[3.95E0,9.9E2,1.19E0,4.36E0,-4.226614E-2,6.8021394E-2,5.2E2,9.302482E-2,3.0746145E-2,4.258686E-3,-6.439288E-2],"split_indices":[9,12,1,1,0,0,12,0,0,0,0],"split_type":[0,0,0,0,0,0,0,0,0,0,0],"sum_hessian":[6.029092E1,2.7789442E1,3.250148E1,2.6206923E1,1.582519E0,1.4677508E0,3.1033728E1,2.4841051E1,1.3658707E0,3.7476404E0,2.7286087E1],"tree_param":{"num_deleted":"0","num_feature":"13","num_nodes":"11","size_leaf_vector":"1"}},{"base_weights":[-9.2791565E-2,7.5343996E-1,-6.456908E-2,-4.4057176E-2,8.7765366E-1,9.394442E-2,-2.7651587E-3],"categories":[],"categories_nodes":[],"categories_segments":[],"categories_sizes":[],"default_left":[0,0,0,0,0,0,0],"id":14,"left_children":[1,3,-1,-1,5,-1,-1],"loss_changes":[2.8064688E1,3.909706E0,0E0,0E0,1.2482529E0,0E0,0E0],"parents":[2147483647,0,0,1,1,4,4],"right_children":[2,4,-1,-1,6,-1,-1],"split_conditions":[2.23E0,3.84E0,-6.456908E-2,-4.4057176E-2,1.39E0,9.394442E-2,-2.7651587E-3],"split_indices":[11,9,0,0,6,0,0],"split_type":[0,0,0,0,0,0,0],"sum_hessian":[5.794279E1,2.2754116E1,3.5188675E1,1.9040861E0,2.0850029E1,1.9482561E1,1.3674695E0],"tree_param":{"num_deleted":"0","num_feature":"13","num_nodes":"7","size_leaf_vector":"1"}},{"base_weights":[-3.0710671E-2,-5.756164E-1,6.8746024E-1,-6.247849E-2,-2.2690175E-1,-4.5211952E-2,8.1499904E-1,-5.181537E-2,4.2018604E-2,8.7086245E-2,-4.621677E-3],"categories":[],"categories_nodes":[],"categories_segments":[],"categories_sizes":[],"default_left":[0,0,0,0,0,0,0,0,0,0,0],"id":15,"left_children":[1,3,5,-1,7,-1,9,-1,-1,-1,-1],"loss_changes":[2.2948288E1,4.2939377E-1,4.048192E0,0E0,1.2894862E0,0E0,1.1528673E0,0E0,0E0,0E0,0E0],"parents":[2147483647,0,0,1,1,2,2,4,4,6,6],"right_children":[2,4,6,-1,8,-1,10,-1,-1,-1,-1],"split_conditions":[7.6E2,2.63E0,2.17E0,-6.247849E-2,1.307E1,-4.5211952E-2,1.32E2,-5.181537E-2,4.2018604E-2,8.7086245E-2,-4.621677E-3],"split_indices":[12,6,6,0,0,0,4,0,0,0,0],"split_type":[0,0,0,0,0,0,0,0,0,0,0],"sum_hessian":[5.6629776E1,3.2311905E1,2.4317871E1,2.7625109E1,4.686797E0,2.1915007E0,2.2126371E1,3.3694656E0,1.3173317E0,2.0768036E1,1.358335E0],"tree_param":{"num_deleted":"0","num_feature":"13","num_nodes":"11","size_leaf_vector":"1"}},{"base_weights":[1.146156E-1,7.6428586E-1,-4.6867517E-1,8.450852E-1,-4.0641055E-2,6.375036E-2,-5.4334295E-1,2.8246243E-2,8.6376004E-2,4.630543E-3,-6.266951E-2],"categories":[],"categories_nodes":[],"categories_segments":[],"categories_sizes":[],"default_left":[0,0,0,0,0,0,0,0,0,0,0],"id":16,"left_children":[1,3,5,7,-1,-1,9,-1,-1,-1,-1],"loss_changes":[2.2930317E1,3.0449276E0,2.9899497E0,4.0130615E-2,0E0,0E0,1.52913E0,0E0,0E0,0E0,0E0],"parents":[2147483647,0,0,1,1,2,2,3,3,6,6],"right_children":[2,4,6,8,-1,-1,10,-1,-1,-1,-1],"split_conditions":[3.95E0,9.9E2,1.19E0,1.02E0,-4.0641055E-2,6.375036E-2,5.2E2,2.8246243E-2,8.6376004E-2,4.630543E-3,-6.266951E-2],"split_indices":[9,12,1,6,0,0,12,0,0,0,0],"split_type":[0,0,0,0,0,0,0,0,0,0,0],"sum_hessian":[5.8565414E1,2.7559402E1,3.1006012E1,2.6040285E1,1.5191181E0,1.4839485E0,2.9522064E1,1.3546152E0,2.4685669E1,3.7113957E0,2.5810669E1],"tree_param":{"num_deleted":"0","num_feature":"13","num_nodes":"11","size_leaf_vector":"1"}},{"base_weights":[-8.903627E-2,7.002732E-1,-6.322927E-2,-4.7799673E-2,8.825328E-2],"categories":[],"categories_nodes":[],"categories_segments":[],"categories_sizes":[],"default_left":[0,0,0,0,0],"id":17,"left_children":[1,3,-1,-1,-1],"loss_changes":[2.4798548E1,5.4965487E0,0E0,0E0,0E0],"parents":[2147483647,0,0,1,1],"right_children":[2,4,-1,-1,-1],"split_conditions":[1.41E0,3.7E0,-6.322927E-2,-4.7799673E-2,8.825328E-2],"split_indices":[6,9,0,0,0],"split_type":[0,0,0,0,0],"sum_hessian":[5.5800186E1,2.263062E1,3.3169567E1,2.81428E0,1.981634E1],"tree_param":{"num_deleted":"0","num_feature":"13","num_nodes":"5","size_leaf_vector":"1"}},{"base_weights":[-3.0174443E-2,-5.594838E-1,6.455066E-1,-6.093824E-2,-2.1663569E-1,-2.937356E-1,7.867256E-1,-5.0361183E-2,3.9563067E-2,-6.463933E-5,-4.1821316E-2,2.1109484E-2,8.1706166E-2],"categories":[],"categories_nodes":[],"categories_segments":[],"categories_sizes":[],"default_left":[0,0,0,0,0,0,0,0,0,0,0,0,0],"id":18,"left_children":[1,3,5,-1,7,9,11,-1,-1,-1,-1,-1,-1],"loss_changes":[2.0163738E1,4.0830135E-1,3.5186949E0,0E0,1.1769173E0,1.4448524E-1,2.085247E-1,0E0,0E0,0E0,0E0,0E0,0E0],"parents":[2147483647,0,0,1,1,2,2,4,4,5,5,6,6],"right_children":[2,4,6,-1,8,10,12,-1,-1,-1,-1,-1,-1],"split_conditions":[7.6E2,2.63E0,2.37E0,-6.093824E-2,1.307E1,1.02E2,1.303E1,-5.0361183E-2,3.9563067E-2,-6.463933E-5,-4.1821316E-2,2.1109484E-2,8.1706166E-2],"split_indices":[12,6,6,0,0,4,0,0,0,0,0,0,0],"split_type":[0,0,0,0,0,0,0,0,0,0,0,0,0],"sum_hessian":[5.43695E1,3.0583345E1,2.3786156E1,2.6019083E1,4.5642624E0,2.9677508E0,2.0818405E1,3.2284937E0,1.3357685E0,1.1843431E0,1.7834078E0,1.4406399E0,1.9377764E1],"tree_param":{"num_deleted":"0","num_feature":"13","num_nodes":"13","size_leaf_vector":"1"}},{"base_weights":[1.10225506E-1,7.1596205E-1,-4.5134667E-1,7.911197E-1,-3.909042E-2,5.9962947E-2,-5.259683E-1,8.115504E-2,2.6147181E-2,4.6533085E-3,-6.1094284E-2],"categories":[],"categories_nodes":[],"categories_segments":[],"categories_sizes":[],"default_left":[0,0,0,0,0,0,0,0,0,0,0],"id":19,"left_children":[1,3,5,7,-1,-1,9,-1,-1,-1,-1],"loss_changes":[1.990511E1,2.6452732E0,2.7062192E0,7.592392E-2,0E0,0E0,1.4390812E0,0E0,0E0,0E0,0E0],"parents":[2147483647,0,0,1,1,2,2,3,3,6,6],"right_children":[2,4,6,8,-1,-1,10,-1,-1,-1,-1],"split_conditions":[3.95E0,9.9E2,1.19E0,2.75E0,-3.909042E-2,5.9962947E-2,5.2E2,8.115504E-2,2.6147181E-2,4.6533085E-3,-6.1094284E-2],"split_indices":[9,12,1,2,0,0,12,0,0,0,0],"split_type":[0,0,0,0,0,0,0,0,0,0,0],"sum_hessian":[5.6566113E1,2.7080723E1,2.9485388E1,2.562595E1,1.4547743E0,1.4883118E0,2.7997076E1,2.4161692E1,1.4642583E0,3.6769097E0,2.4320166E1],"tree_param":{"num_deleted":"0","num_feature":"13","num_nodes":"11","size_leaf_vector":"1"}},{"base_weights":[-8.5840985E-2,6.583069E-1,-6.1731316E-2,-4.6359833E-2,8.280724E-2],"categories":[],"categories_nodes":[],"categories_segments":[],"categories_sizes":[],"default_left":[0,0,0,0,0],"id":20,"left_children":[1,3,-1,-1,-1],"loss_changes":[2.1943172E1,4.797282E0,0E0,0E0,0E0],"parents":[2147483647,0,0,1,1],"right_children":[2,4,-1,-1,-1],"split_conditions":[1.41E0,3.7E0,-6.1731316E-2,-4.6359833E-2,8.280724E-2],"split_indices":[6,9,0,0,0],"split_type":[0,0,0,0,0],"sum_hessian":[5.345544E1,2.2172153E1,3.1283287E1,2.6866252E0,1.9485527E1],"tree_param":{"num_deleted":"0","num_feature":"13","num_nodes":"5","size_leaf_vector":"1"}},{"base_weights":[-2.966843E-2,-5.448058E-1,6.094638E-1,-5.9556384E-2,-2.0710982E-1,-4.2258807E-2,7.218375E-1,-4.897849E-2,3.7308134E-2,7.7377364E-2,-5.240214E-3],"categories":[],"categories_nodes":[],"categories_segments":[],"categories_sizes":[],"default_left":[0,0,0,0,0,0,0,0,0,0,0],"id":21,"left_children":[1,3,5,-1,7,-1,9,-1,-1,-1,-1],"loss_changes":[1.7776737E1,3.8858223E-1,3.1021843E0,0E0,1.0742115E0,0E0,9.299917E-1,0E0,0E0,0E0,0E0],"parents":[2147483647,0,0,1,1,2,2,4,4,6,6],"right_children":[2,4,6,-1,8,-1,10,-1,-1,-1,-1],"split_conditions":[7.6E2,2.63E0,2.17E0,-5.9556384E-2,1.307E1,-4.2258807E-2,1.32E2,-4.897849E-2,3.7308134E-2,7.7377364E-2,-5.240214E-3],"split_indices":[12,6,6,0,0,0,4,0,0,0,0],"split_type":[0,0,0,0,0,0,0,0,0,0,0],"sum_hessian":[5.1984596E1,2.8866182E1,2.3118412E1,2.4430504E1,4.4356794E0,1.998983E0,2.111943E1,3.0873246E0,1.3483548E0,1.9792358E1,1.3270714E0],"tree_param":{"num_deleted":"0","num_feature":"13","num_nodes":"11","size_leaf_vector":"1"}},{"base_weights":[1.0633035E-1,7.175848E-1,-3.9782193E-1,7.852235E-2,2.3904295E-1,4.2919227E-1,-5.1067275E-1,5.777306E-2,-3.882722E-2,6.441971E-2,-4.003797E-3,5.46882E-3,-5.9678208E-2],"categories":[],"categories_nodes":[],"categories_segments":[],"categories_sizes":[],"default_left":[0,0,0,0,0,0,0,0,0,0,0,0,0],"id":22,"left_children":[1,3,5,-1,7,9,11,-1,-1,-1,-1,-1,-1],"loss_changes":[1.7351755E1,6.3405323E-1,3.1116652E0,0E0,1.1977613E0,4.560374E-1,1.3824992E0,0E0,0E0,0E0,0E0,0E0,0E0],"parents":[2147483647,0,0,1,1,2,2,4,4,5,5,6,6],"right_children":[2,4,6,-1,8,10,12,-1,-1,-1,-1,-1,-1],"split_conditions":[3.84E0,1.303E1,4.66E2,7.852235E-2,7.6E2,1.267E1,8.9E1,5.777306E-2,-3.882722E-2,6.441971E-2,-4.003797E-3,5.46882E-3,-5.9678208E-2],"split_indices":[9,0,12,0,12,0,4,0,0,0,0,0,0],"split_type":[0,0,0,0,0,0,0,0,0,0,0,0,0],"sum_hessian":[5.4380287E1,2.4387978E1,2.999231E1,2.0806284E1,3.5816946E0,3.2646337E0,2.6727676E1,2.377256E0,1.2044387E0,1.9830878E0,1.2815459E0,3.581013E0,2.3146664E1],"tree_param":{"num_deleted":"0","num_feature":"13","num_nodes":"13","size_leaf_vector":"1"}},{"base_weights":[-8.30073E-2,6.244113E-1,-6.04056E-2,-4.480411E-2,7.8321755E-2],"categories":[],"categories_nodes":[],"categories_segments":[],"categories_sizes":[],"default_left":[0,0,0,0,0],"id":23,"left_children":[1,3,-1,-1,-1],"loss_changes":[1.95455E1,4.1912127E0,0E0,0E0,0E0],"parents":[2147483647,0,0,1,1],"right_children":[2,4,-1,-1,-1],"split_conditions":[1.41E0,3.7E0,-6.04056E-2,-4.480411E-2,7.8321755E-2],"split_indices":[6,9,0,0,0],"split_type":[0,0,0,0,0],"sum_hessian":[5.100311E1,2.1548592E1,2.9454515E1,2.5444014E0,1.900419E1],"tree_param":{"num_deleted":"0","num_feature":"13","num_nodes":"5","size_leaf_vector":"1"}},{"base_weights":[-2.9869359E-2,-5.3127694E-1,5.781393E-1,-5.829626E-2,-1.9863524E-1,-4.073779E-2,6.844411E-1,-4.764134E-2,3.5071425E-2,7.3486716E-2,-5.0458573E-3],"categories":[],"categories_nodes":[],"categories_segments":[],"categories_sizes":[],"default_left":[0,0,0,0,0,0,0,0,0,0,0],"id":24,"left_children":[1,3,5,-1,7,-1,9,-1,-1,-1,-1],"loss_changes":[1.5695304E1,3.687687E-1,2.7189345E0,0E0,9.769417E-1,0E0,8.300209E-1,0E0,0E0,0E0,0E0],"parents":[2147483647,0,0,1,1,2,2,4,4,6,6],"right_children":[2,4,6,-1,8,-1,10,-1,-1,-1,-1],"split_conditions":[7.6E2,2.63E0,2.17E0,-5.829626E-2,1.307E1,-4.073779E-2,1.32E2,-4.764134E-2,3.5071425E-2,7.3486716E-2,-5.0458573E-3],"split_indices":[12,6,6,0,0,0,4,0,0,0,0],"split_type":[0,0,0,0,0,0,0,0,0,0,0],"sum_hessian":[4.94761E1,2.7184235E1,2.2291868E1,2.2877085E1,4.30715E0,1.8946272E0,2.0397242E1,2.9488392E0,1.3583105E0,1.9087568E1,1.3096724E0],"tree_param":{"num_deleted":"0","num_feature":"13","num_nodes":"11","size_leaf_vector":"1"}},{"base_weights":[1.0354412E-1,6.428681E-1,-4.20662E-1,7.100722E-1,-3.619061E-2,1.9313788E-1,-5.496137E-1,7.297821E-2,2.2735607E-2,-4.334783E-2,6.908613E-2,-5.8422934E-2,8.280576E-3],"categories":[],"categories_nodes":[],"categories_segments":[],"categories_sizes":[],"default_left":[0,0,0,0,0,0,0,0,0,0,0,0,0],"id":25,"left_children":[1,3,5,7,-1,9,11,-1,-1,-1,-1,-1,-1],"loss_changes":[1.5262522E1,2.0486164E0,2.2824502E0,7.3908806E-2,0E0,2.0190609E0,5.5149317E-1,0E0,0E0,0E0,0E0,0E0,0E0],"parents":[2147483647,0,0,1,1,2,2,3,3,5,5,6,6],"right_children":[2,4,6,8,-1,10,12,-1,-1,-1,-1,-1,-1],"split_conditions":[3.95E0,9.9E2,5.2E2,2.75E0,-3.619061E-2,1.39E0,3.5E0,7.297821E-2,2.2735607E-2,-4.334783E-2,6.908613E-2,-5.8422934E-2,8.280576E-3],"split_indices":[9,12,12,2,0,6,5,0,0,0,0,0,0],"split_type":[0,0,0,0,0,0,0,0,0,0,0,0,0],"sum_hessian":[5.2028637E1,2.5532957E1,2.649568E1,2.4207167E1,1.3257903E0,4.5135927E0,2.1982086E1,2.2765787E1,1.4413794E0,2.0552204E0,2.4583726E0,2.0913576E1,1.06851E0],"tree_param":{"num_deleted":"0","num_feature":"13","num_nodes":"13","size_leaf_vector":"1"}},{"base_weights":[-8.05275E-2,5.951854E-1,-5.9195697E-2,-4.333205E-2,7.45069E-2],"categories":[],"categories_nodes":[],"categories_segments":[],"categories_sizes":[],"default_left":[0,0,0,0,0],"id":26,"left_children":[1,3,-1,-1,-1],"loss_changes":[1.744565E1,3.684626E0,0E0,0E0,0E0],"parents":[2147483647,0,0,1,1],"right_children":[2,4,-1,-1,-1],"split_conditions":[1.41E0,3.7E0,-5.9195697E-2,-4.333205E-2,7.45069E-2],"split_indices":[6,9,0,0,0],"split_type":[0,0,0,0,0],"sum_hessian":[4.8462795E1,2.080757E1,2.7655228E1,2.4060607E0,1.8401508E1],"tree_param":{"num_deleted":"0","num_feature":"13","num_nodes":"5","size_leaf_vector":"1"}},{"base_weights":[-2.9361907E-2,-5.1860607E-1,5.5194706E-1,-5.714015E-2,-1.8962084E-1,-2.6667938E-1,6.733486E-1,-4.6298545E-2,3.315535E-2,-6.795104E-5,-3.7691083E-2,1.585033E-2,7.0272245E-2],"categories":[],"categories_nodes":[],"categories_segments":[],"categories_sizes":[],"default_left":[0,0,0,0,0,0,0,0,0,0,0,0,0],"id":27,"left_children":[1,3,5,-1,7,9,11,-1,-1,-1,-1,-1,-1],"loss_changes":[1.3916995E1,3.526268E-1,2.4044929E0,0E0,8.896302E-1,1.05523646E-1,1.87747E-1,0E0,0E0,0E0,0E0,0E0,0E0],"parents":[2147483647,0,0,1,1,2,2,4,4,5,5,6,6],"right_children":[2,4,6,-1,8,10,12,-1,-1,-1,-1,-1,-1],"split_conditions":[7.6E2,2.63E0,2.37E0,-5.714015E-2,1.307E1,3E-1,1.303E1,-4.6298545E-2,3.315535E-2,-6.795104E-5,-3.7691083E-2,1.585033E-2,7.0272245E-2],"split_indices":[12,6,6,0,0,7,0,0,0,0,0,0,0],"split_type":[0,0,0,0,0,0,0,0,0,0,0,0,0],"sum_hessian":[4.692776E1,2.5540285E1,2.1387478E1,2.1373425E1,4.1668606E0,2.607577E0,1.87799E1,2.80647E0,1.3603907E0,1.0587848E0,1.5487924E0,1.3588529E0,1.7421047E1],"tree_param":{"num_deleted":"0","num_feature":"13","num_nodes":"13","size_leaf_vector":"1"}},{"base_weights":[1.00603275E-1,6.127108E-1,-4.0747023E-1,6.7690325E-1,-3.483096E-2,1.8619907E-1,-5.366328E-1,6.9642685E-2,2.1411223E-2,-4.1771617E-2,6.506152E-2,-5.7238754E-2,8.617546E-3],"categories":[],"categories_nodes":[],"categories_segments":[],"categories_sizes":[],"default_left":[0,0,0,0,0,0,0,0,0,0,0,0,0],"id":28,"left_children":[1,3,5,7,-1,9,11,-1,-1,-1,-1,-1,-1],"loss_changes":[1.3410394E1,1.8144379E0,2.0929356E0,7.069588E-2,0E0,1.7825954E0,5.304246E-1,0E0,0E0,0E0,0E0,0E0,0E0],"parents":[2147483647,0,0,1,1,2,2,3,3,5,5,6,6],"right_children":[2,4,6,8,-1,10,12,-1,-1,-1,-1,-1,-1],"split_conditions":[3.95E0,9.9E2,5.2E2,2.75E0,-3.483096E-2,1.39E0,3.69E0,6.9642685E-2,2.1411223E-2,-4.1771617E-2,6.506152E-2,-5.7238754E-2,8.617546E-3],"split_indices":[9,12,12,2,0,6,6,0,0,0,0,0,0],"split_type":[0,0,0,0,0,0,0,0,0,0,0,0,0],"sum_hessian":[4.958158E1,2.4590197E1,2.4991385E1,2.332764E1,1.2625564E0,4.3867936E0,2.0604591E1,2.1898954E1,1.428685E0,1.9507034E0,2.4360905E0,1.9562487E1,1.042105E0],"tree_param":{"num_deleted":"0","num_feature":"13","num_nodes":"13","size_leaf_vector":"1"}},{"base_weights":[-7.859212E-2,5.6887096E-1,-5.805747E-2,-4.190827E-2,7.11303E-2],"categories":[],"categories_nodes":[],"categories_segments":[],"categories_sizes":[],"default_left":[0,0,0,0,0],"id":29,"left_children":[1,3,-1,-1,-1],"loss_changes":[1.5554681E1,3.247766E0,0E0,0E0,0E0],"parents":[2147483647,0,0,1,1],"right_children":[2,4,-1,-1,-1],"split_conditions":[1.41E0,3.7E0,-5.805747E-2,-4.190827E-2,7.11303E-2],"split_indices":[6,9,0,0,0],"split_type":[0,0,0,0,0],"sum_hessian":[4.584214E1,1.9961855E1,2.5880285E1,2.2705126E0,1.7691341E1],"tree_param":{"num_deleted":"0","num_feature":"13","num_nodes":"5","size_leaf_vector":"1"}},{"base_weights":[-2.8677044E-2,-5.068351E-1,5.286878E-1,-5.655093E-2,-1.9623467E-1,-3.8123537E-2,6.268062E-1,-4.495948E-2,3.7274893E-2,6.7634776E-2,-5.459497E-3],"categories":[],"categories_nodes":[],"categories_segments":[],"categories_sizes":[],"default_left":[0,0,0,0,0,0,0,0,0,0,0],"id":30,"left_children":[1,3,5,-1,7,-1,9,-1,-1,-1,-1],"loss_changes":[1.2370358E1,3.4377337E-1,2.1547527E0,0E0,9.599004E-1,0E0,7.035613E-1,0E0,0E0,0E0,0E0],"parents":[2147483647,0,0,1,1,2,2,4,4,6,6],"right_children":[2,4,6,-1,8,-1,10,-1,-1,-1,-1],"split_conditions":[7.6E2,6.8E2,2.17E0,-5.655093E-2,2.3E0,-3.8123537E-2,1.32E2,-4.495948E-2,3.7274893E-2,6.7634776E-2,-5.459497E-3],"split_indices":[12,12,6,0,5,0,4,0,0,0,0],"split_type":[0,0,0,0,0,0,0,0,0,0,0],"sum_hessian":[4.4410942E1,2.3952755E1,2.0458185E1,1.9456593E1,4.4961615E0,1.7104534E0,1.8747732E1,3.2560968E0,1.2400646E0,1.748397E1,1.2637624E0],"tree_param":{"num_deleted":"0","num_feature":"13","num_nodes":"11","size_leaf_vector":"1"}},{"base_weights":[9.7871915E-2,6.253492E-1,-3.5980505E-1,6.8647996E-2,1.969982E-1,3.6656582E-1,-4.708044E-1,4.9979817E-2,-3.5353553E-2,-4.0379125E-3,5.437061E-2,6.904921E-3,-5.6281626E-2],"categories":[],"categories_nodes":[],"categories_segments":[],"categories_sizes":[],"default_left":[0,0,0,0,0,0,0,0,0,0,0,0,0],"id":31,"left_children":[1,3,5,-1,7,9,11,-1,-1,-1,-1,-1,-1],"loss_changes":[1.1839414E1,4.5958614E-1,2.3006465E0,0E0,8.834127E-1,3.1469405E-1,1.1978855E0,0E0,0E0,0E0,0E0,0E0,0E0],"parents":[2147483647,0,0,1,1,2,2,4,4,5,5,6,6],"right_children":[2,4,6,-1,8,10,12,-1,-1,-1,-1,-1,-1],"split_conditions":[3.84E0,1.303E1,4.66E2,6.8647996E-2,7.6E2,7.2E-1,8.9E1,4.9979817E-2,-3.5353553E-2,-4.0379125E-3,5.437061E-2,6.904921E-3,-5.6281626E-2],"split_indices":[9,0,12,0,12,10,4,0,0,0,0,0,0],"split_type":[0,0,0,0,0,0,0,0,0,0,0,0,0],"sum_hessian":[4.710988E1,2.171582E1,2.5394058E1,1.8476412E1,3.2394094E0,3.0609608E0,2.2333097E1,2.1493816E0,1.0900279E0,1.162468E0,1.8984929E0,3.2884722E0,1.9044624E1],"tree_param":{"num_deleted":"0","num_feature":"13","num_nodes":"13","size_leaf_vector":"1"}},{"base_weights":[-7.698673E-2,5.4618835E-1,-5.7023335E-2,-4.0539596E-2,6.8243235E-2],"categories":[],"categories_nodes":[],"categories_segments":[],"categories_sizes":[],"default_left":[0,0,0,0,0],"id":32,"left_children":[1,3,-1,-1,-1],"loss_changes":[1.391175E1,2.8772717E0,0E0,0E0,0E0],"parents":[2147483647,0,0,1,1],"right_children":[2,4,-1,-1,-1],"split_conditions":[1.41E0,3.7E0,-5.7023335E-2,-4.0539596E-2,6.8243235E-2],"split_indices":[6,9,0,0,0],"split_type":[0,0,0,0,0],"sum_hessian":[4.3246006E1,1.905911E1,2.4186895E1,2.139618E0,1.6919493E1],"tree_param":{"num_deleted":"0","num_feature":"13","num_nodes":"5","size_leaf_vector":"1"}},{"base_weights":[-2.915529E-2,-4.9591666E-1,5.074871E-1,-5.5554993E-2,-1.865735E-1,-3.6770526E-2,6.0206246E-1,-4.3760937E-2,3.522139E-2,6.512532E-2,-5.2278177E-3],"categories":[],"categories_nodes":[],"categories_segments":[],"categories_sizes":[],"default_left":[0,0,0,0,0,0,0,0,0,0,0],"id":33,"left_children":[1,3,5,-1,7,-1,9,-1,-1,-1,-1],"loss_changes":[1.0992498E1,3.2873344E-1,1.9133329E0,0E0,8.7014943E-1,0E0,6.400356E-1,0E0,0E0,0E0,0E0],"parents":[2147483647,0,0,1,1,2,2,4,4,6,6],"right_children":[2,4,6,-1,8,-1,10,-1,-1,-1,-1],"split_conditions":[7.6E2,6.8E2,2.17E0,-5.5554993E-2,2.3E0,-3.6770526E-2,1.32E2,-4.3760937E-2,3.522139E-2,6.512532E-2,-5.2278177E-3],"split_indices":[12,12,6,0,5,0,4,0,0,0,0],"split_type":[0,0,0,0,0,0,0,0,0,0,0],"sum_hessian":[4.1880302E1,2.2439095E1,1.9441208E1,1.814526E1,4.293834E0,1.6143335E0,1.7826874E1,3.0571926E0,1.2366416E0,1.6584812E1,1.242062E0],"tree_param":{"num_deleted":"0","num_feature":"13","num_nodes":"11","size_leaf_vector":"1"}},{"base_weights":[9.6038155E-2,5.6539464E-1,-3.840428E-1,6.251303E-1,-3.2256503E-2,1.7630121E-1,-5.1388174E-1,6.449346E-2,1.8727263E-2,-3.8930267E-2,5.8814254E-2,8.361486E-3,-5.5183984E-2],"categories":[],"categories_nodes":[],"categories_segments":[],"categories_sizes":[],"default_left":[0,0,0,0,0,0,0,0,0,0,0,0,0],"id":34,"left_children":[1,3,5,7,-1,9,11,-1,-1,-1,-1,-1,-1],"loss_changes":[1.0498832E1,1.4469337E0,1.7750559E0,7.2919846E-2,0E0,1.4169756E0,4.7825003E-1,0E0,0E0,0E0,0E0,0E0,0E0],"parents":[2147483647,0,0,1,1,2,2,3,3,5,5,6,6],"right_children":[2,4,6,8,-1,10,12,-1,-1,-1,-1,-1,-1],"split_conditions":[3.95E0,9.9E2,5.2E2,2.75E0,-3.2256503E-2,1.39E0,1.242E1,6.449346E-2,1.8727263E-2,-3.8930267E-2,5.8814254E-2,8.361486E-3,-5.5183984E-2],"split_indices":[9,12,12,2,0,6,0,0,0,0,0,0,0],"split_type":[0,0,0,0,0,0,0,0,0,0,0,0,0],"sum_hessian":[4.462968E1,2.2477043E1,2.2152637E1,2.1337593E1,1.1394496E0,4.100091E0,1.8052547E1,1.996179E1,1.375803E0,1.7506102E0,2.3494809E0,1.0064963E0,1.7046051E1],"tree_param":{"num_deleted":"0","num_feature":"13","num_nodes":"13","size_leaf_vector":"1"}},{"base_weights":[-7.505473E-2,5.274153E-1,-5.6099888E-2,-3.919586E-2,6.582272E-2],"categories":[],"categories_nodes":[],"categories_segments":[],"categories_sizes":[],"default_left":[0,0,0,0,0],"id":35,"left_children":[1,3,-1,-1,-1],"loss_changes":[1.2512918E1,2.560645E0,0E0,0E0,0E0],"parents":[2147483647,0,0,1,1],"right_children":[2,4,-1,-1,-1],"split_conditions":[1.41E0,3.7E0,-5.6099888E-2,-3.919586E-2,6.582272E-2],"split_indices":[6,9,0,0,0],"split_type":[0,0,0,0,0],"sum_hessian":[4.072959E1,1.8146435E1,2.2583158E1,2.0116658E0,1.6134768E1],"tree_param":{"num_deleted":"0","num_feature":"13","num_nodes":"5","size_leaf_vector":"1"}},{"base_weights":[-2.9070105E-2,-4.8549184E-1,4.8915792E-1,-5.4231685E-2,-1.6023485E-1,-2.4380425E-1,5.9958905E-1,-4.2387944E-2,2.9510392E-2,-6.8371715E-3,-3.1011987E-2,1.1792692E-2,6.298873E-2],"categories":[],"categories_nodes":[],"categories_segments":[],"categories_sizes":[],"default_left":[0,0,0,0,0,0,0,0,0,0,0,0,0],"id":36,"left_children":[1,3,5,-1,7,9,11,-1,-1,-1,-1,-1,-1],"loss_changes":[9.792615E0,3.1937551E-1,1.7177305E0,0E0,6.8793505E-1,1.6643584E-2,1.7618275E-1,0E0,0E0,0E0,0E0,0E0,0E0],"parents":[2147483647,0,0,1,1,2,2,4,4,5,5,6,6],"right_children":[2,4,6,-1,8,10,12,-1,-1,-1,-1,-1,-1],"split_conditions":[7.6E2,2.63E0,2.37E0,-5.4231685E-2,1.307E1,1.04E2,1.303E1,-4.2387944E-2,2.9510392E-2,-6.8371715E-3,-3.1011987E-2,1.1792692E-2,6.298873E-2],"split_indices":[12,6,6,0,0,4,0,0,0,0,0,0,0],"split_type":[0,0,0,0,0,0,0,0,0,0,0,0,0],"sum_hessian":[3.9397034E1,2.0981262E1,1.8415771E1,1.7292734E1,3.6885285E0,2.2531612E0,1.616261E1,2.3797345E0,1.3087941E0,1.1752193E0,1.0779418E0,1.2460427E0,1.4916567E1],"tree_param":{"num_deleted":"0","num_feature":"13","num_nodes":"13","size_leaf_vector":"1"}},{"base_weights":[9.386415E-2,5.4437226E-1,-3.7348995E-1,6.023312E-1,-3.1046087E-2,1.7007338E-1,-5.031643E-1,6.202971E-2,1.4345929E-2,-3.754573E-2,5.5873346E-2,4.3670437E-3,-5.4270666E-2],"categories":[],"categories_nodes":[],"categories_segments":[],"categories_sizes":[],"default_left":[0,0,0,0,0,0,0,0,0,0,0,0,0],"id":37,"left_children":[1,3,5,7,-1,9,11,-1,-1,-1,-1,-1,-1],"loss_changes":[9.290531E0,1.2959723E0,1.6205561E0,8.6625576E-2,0E0,1.2575966E0,4.0935183E-1,0E0,0E0,0E0,0E0,0E0,0E0],"parents":[2147483647,0,0,1,1,2,2,3,3,5,5,6,6],"right_children":[2,4,6,8,-1,10,12,-1,-1,-1,-1,-1,-1],"split_conditions":[3.95E0,9.9E2,5.2E2,4.36E0,-3.1046087E-2,1.39E0,2.12E0,6.202971E-2,1.4345929E-2,-3.754573E-2,5.5873346E-2,4.3670437E-3,-5.4270666E-2],"split_indices":[9,12,12,1,0,6,2,0,0,0,0,0,0],"split_type":[0,0,0,0,0,0,0,0,0,0,0,0,0],"sum_hessian":[4.216006E1,2.1383013E1,2.0777046E1,2.0301895E1,1.0811172E0,3.9419227E0,1.6835125E1,1.9198446E1,1.103449E0,1.6541277E0,2.287795E0,1.128238E0,1.5706886E1],"tree_param":{"num_deleted":"0","num_feature":"13","num_nodes":"13","size_leaf_vector":"1"}},{"base_weights":[-7.331435E-2,5.1031893E-1,-5.5218626E-2,-3.789131E-2,6.3650064E-2],"categories":[],"categories_nodes":[],"categories_segments":[],"categories_sizes":[],"default_left":[0,0,0,0,0],"id":38,"left_children":[1,3,-1,-1,-1],"loss_changes":[1.1248732E1,2.283875E0,0E0,0E0,0E0],"parents":[2147483647,0,0,1,1],"right_children":[2,4,-1,-1,-1],"split_conditions":[1.41E0,3.7E0,-5.5218626E-2,-3.789131E-2,6.3650064E-2],"split_indices":[6,9,0,0,0],"split_type":[0,0,0,0,0],"sum_hessian":[3.8239735E1,1.720508E1,2.1034655E1,1.889116E0,1.5315965E1],"tree_param":{"num_deleted":"0","num_feature":"13","num_nodes":"5","size_leaf_vector":"1"}},{"base_weights":[-2.8442372E-2,-4.7570372E-1,4.7256792E-1,-5.3799093E-2,-1.6223976E-1,-3.4447547E-2,5.625655E-1,-4.114884E-2,3.2516364E-2,6.124837E-2,-5.542084E-3],"categories":[],"categories_nodes":[],"categories_segments":[],"categories_sizes":[],"default_left":[0,0,0,0,0,0,0,0,0,0,0],"id":39,"left_children":[1,3,5,-1,7,-1,9,-1,-1,-1,-1],"loss_changes":[8.750733E0,3.149414E-1,1.5502653E0,0E0,7.2260064E-1,0E0,5.582752E-1,0E0,0E0,0E0,0E0],"parents":[2147483647,0,0,1,1,2,2,4,4,6,6],"right_children":[2,4,6,-1,8,-1,10,-1,-1,-1,-1],"split_conditions":[7.6E2,6.8E2,2.17E0,-5.3799093E-2,2.3E0,-3.4447547E-2,1.32E2,-4.114884E-2,3.2516364E-2,6.124837E-2,-5.542084E-3],"split_indices":[12,12,6,0,5,0,4,0,0,0,0],"split_type":[0,0,0,0,0,0,0,0,0,0,0],"sum_hessian":[3.7048172E1,1.9600735E1,1.7447435E1,1.5754036E1,3.8466995E0,1.4505949E0,1.59968405E1,2.6482098E0,1.1984895E0,1.48095E1,1.187341E0],"tree_param":{"num_deleted":"0","num_feature":"13","num_nodes":"11","size_leaf_vector":"1"}},{"base_weights":[9.183415E-2,5.622818E-1,-3.2900605E-1,6.213162E-2,1.6182637E-1,2.0938978E-1,-4.666602E-1,4.0325582E-2,-1.607012E-2,-3.6212523E-2,5.5392582E-2,-3.7756355E-3,-5.3308018E-2],"categories":[],"categories_nodes":[],"categories_segments":[],"categories_sizes":[],"default_left":[0,0,0,0,0,0,0,0,0,0,0,0,0],"id":40,"left_children":[1,3,5,-1,7,9,11,-1,-1,-1,-1,-1,-1],"loss_changes":[8.259345E0,3.6341715E-1,1.7398453E0,0E0,3.6643627E-1,1.2248725E0,4.913845E-1,0E0,0E0,0E0,0E0,0E0,0E0],"parents":[2147483647,0,0,1,1,2,2,4,4,5,5,6,6],"right_children":[2,4,6,-1,8,10,12,-1,-1,-1,-1,-1,-1],"split_conditions":[3.84E0,1.303E1,5.2E2,6.213162E-2,9.5E1,1.39E0,8.9E1,4.0325582E-2,-1.607012E-2,-3.6212523E-2,5.5392582E-2,-3.7756355E-3,-5.3308018E-2],"split_indices":[9,0,12,0,4,6,4,0,0,0,0,0,0],"split_type":[0,0,0,0,0,0,0,0,0,0,0,0,0],"sum_hessian":[3.9782986E1,1.8625675E1,2.115731E1,1.5752019E1,2.8736572E0,4.2018433E0,1.695547E1,1.5003011E0,1.373356E0,1.5611544E0,2.6406887E0,2.4839473E0,1.4471521E1],"tree_param":{"num_deleted":"0","num_feature":"13","num_nodes":"13","size_leaf_vector":"1"}},{"base_weights":[-7.231291E-2,4.9438086E-1,-5.4397184E-2,-3.665525E-2,6.16807E-2],"categories":[],"categories_nodes":[],"categories_segments":[],"categories_sizes":[],"default_left":[0,0,0,0,0],"id":41,"left_children":[1,3,-1,-1,-1],"loss_changes":[1.0112353E1,2.0444894E0,0E0,0E0,0E0],"parents":[2147483647,0,0,1,1],"right_children":[2,4,-1,-1,-1],"split_conditions":[1.41E0,3.7E0,-5.4397184E-2,-3.665525E-2,6.16807E-2],"split_indices":[6,9,0,0,0],"split_type":[0,0,0,0,0],"sum_hessian":[3.5827286E1,1.625222E1,1.9575066E1,1.7751088E0,1.4477111E1],"tree_param":{"num_deleted":"0","num_feature":"13","num_nodes":"5","size_leaf_vector":"1"}},{"base_weights":[-2.8834103E-2,-4.6651274E-1,4.572205E-1,-5.2965473E-2,-1.5581805E-1,-2.2939732E-2,5.6331015E-1,-4.0070917E-2,3.0428944E-2,9.7554345E-3,5.9476655E-2],"categories":[],"categories_nodes":[],"categories_segments":[],"categories_sizes":[],"default_left":[0,0,0,0,0,0,0,0,0,0,0],"id":42,"left_children":[1,3,5,-1,7,-1,9,-1,-1,-1,-1],"loss_changes":[7.815185E0,2.9604864E-1,1.3993356E0,0E0,6.4883137E-1,0E0,1.6748857E-1,0E0,0E0,0E0,0E0],"parents":[2147483647,0,0,1,1,2,2,4,4,6,6],"right_children":[2,4,6,-1,8,-1,10,-1,-1,-1,-1],"split_conditions":[7.6E2,6.8E2,2.37E0,-5.2965473E-2,2.3E0,-2.2939732E-2,1.303E1,-4.0070917E-2,3.0428944E-2,9.7554345E-3,5.9476655E-2],"split_indices":[12,12,6,0,5,0,0,0,0,0,0],"split_type":[0,0,0,0,0,0,0,0,0,0,0],"sum_hessian":[3.473394E1,1.8297634E1,1.6436306E1,1.4621407E1,3.676228E0,2.044152E0,1.4392154E1,2.483492E0,1.1927361E0,1.1699963E0,1.32221575E1],"tree_param":{"num_deleted":"0","num_feature":"13","num_nodes":"11","size_leaf_vector":"1"}},{"base_weights":[9.04261E-2,5.1016694E-1,-3.54638E-1,6.0243934E-2,1.1181669E-1,2.7568337E-1,-4.5736825E-1,4.901972E-2,-3.931333E-2,-3.9255675E-3,4.3294158E-2,-3.2892653E-3,-5.253581E-2],"categories":[],"categories_nodes":[],"categories_segments":[],"categories_sizes":[],"default_left":[0,0,0,0,0,0,0,0,0,0,0,0,0],"id":43,"left_children":[1,3,5,-1,7,9,11,-1,-1,-1,-1,-1,-1],"loss_changes":[7.3637743E0,6.750455E-1,1.3727038E0,0E0,1.1531041E0,1.8151757E-1,4.7131872E-1,0E0,0E0,0E0,0E0,0E0,0E0],"parents":[2147483647,0,0,1,1,2,2,4,4,5,5,6,6],"right_children":[2,4,6,-1,8,10,12,-1,-1,-1,-1,-1,-1],"split_conditions":[3.95E0,7.2E2,1.41E0,6.0243934E-2,3.58E0,2.02E0,5.2E2,4.901972E-2,-3.931333E-2,-3.9255675E-3,4.3294158E-2,-3.2892653E-3,-5.253581E-2],"split_indices":[9,12,1,0,9,5,12,0,0,0,0,0,0],"split_type":[0,0,0,0,0,0,0,0,0,0,0,0,0],"sum_hessian":[3.7449703E1,1.9197874E1,1.8251831E1,1.5171312E1,4.0265617E0,2.321885E0,1.5929945E1,2.3184586E0,1.7081032E0,1.0231699E0,1.2987151E0,2.404143E0,1.3525803E1],"tree_param":{"num_deleted":"0","num_feature":"13","num_nodes":"13","size_leaf_vector":"1"}},{"base_weights":[-7.084432E-2,4.801E-1,-5.3631216E-2,-3.5542183E-2,5.9970565E-2],"categories":[],"categories_nodes":[],"categories_segments":[],"categories_sizes":[],"default_left":[0,0,0,0,0],"id":44,"left_children":[1,3,-1,-1,-1],"loss_changes":[9.1134815E0,1.8462868E0,0E0,0E0,0E0],"parents":[2147483647,0,0,1,1],"right_children":[2,4,-1,-1,-1],"split_conditions":[1.41E0,3.7E0,-5.3631216E-2,-3.5542183E-2,5.9970565E-2],"split_indices":[6,9,0,0,0],"split_type":[0,0,0,0,0],"sum_hessian":[3.3533463E1,1.5342316E1,1.8191147E1,1.6743435E0,1.3667973E1],"tree_param":{"num_deleted":"0","num_feature":"13","num_nodes":"5","size_leaf_vector":"1"}},{"base_weights":[-2.9101213E-2,-4.576617E-1,4.4213524E-1,-5.218743E-2,-1.4785421E-1,-3.223397E-2,5.2873504E-1,-3.8933214E-2,2.8892873E-2,5.802939E-2,-5.9291585E-3],"categories":[],"categories_nodes":[],"categories_segments":[],"categories_sizes":[],"default_left":[0,0,0,0,0,0,0,0,0,0,0],"id":45,"left_children":[1,3,5,-1,7,-1,9,-1,-1,-1,-1],"loss_changes":[6.977143E0,2.8211784E-1,1.2618794E0,0E0,5.866877E-1,0E0,4.9486017E-1,0E0,0E0,0E0,0E0],"parents":[2147483647,0,0,1,1,2,2,4,4,6,6],"right_children":[2,4,6,-1,8,-1,10,-1,-1,-1,-1],"split_conditions":[7.6E2,6.8E2,2.17E0,-5.218743E-2,2.3E0,-3.223397E-2,1.32E2,-3.8933214E-2,2.8892873E-2,5.802939E-2,-5.9291585E-3],"split_indices":[12,12,6,0,5,0,4,0,0,0,0],"split_type":[0,0,0,0,0,0,0,0,0,0,0],"sum_hessian":[3.254634E1,1.7060068E1,1.5486273E1,1.3564163E1,3.4959047E0,1.2987915E0,1.4187481E1,2.3212345E0,1.1746703E0,1.3055878E1,1.1316037E0],"tree_param":{"num_deleted":"0","num_feature":"13","num_nodes":"11","size_leaf_vector":"1"}},{"base_weights":[8.9062855E-2,5.3121644E-1,-3.1053177E-1,5.8915135E-2,1.3908817E-1,1.953964E-1,-4.476668E-1,3.7376974E-2,-1.7326143E-2,-3.4158E-2,5.1368207E-2,-2.86177E-3,-5.170458E-2],"categories":[],"categories_nodes":[],"categories_segments":[],"categories_sizes":[],"default_left":[0,0,0,0,0,0,0,0,0,0,0,0,0],"id":46,"left_children":[1,3,5,-1,7,9,11,-1,-1,-1,-1,-1,-1],"loss_changes":[6.5627646E0,3.1695747E-1,1.4509308E0,0E0,3.264014E-1,1.010705E0,4.435401E-1,0E0,0E0,0E0,0E0,0E0,0E0],"parents":[2147483647,0,0,1,1,2,2,4,4,5,5,6,6],"right_children":[2,4,6,-1,8,10,12,-1,-1,-1,-1,-1,-1],"split_conditions":[3.84E0,3.58E0,5.2E2,5.8915135E-2,1.89E0,1.39E0,8.9E1,3.7376974E-2,-1.7326143E-2,-3.4158E-2,5.1368207E-2,-2.86177E-3,-5.170458E-2],"split_indices":[9,9,12,0,5,6,4,0,0,0,0,0,0],"split_type":[0,0,0,0,0,0,0,0,0,0,0,0,0],"sum_hessian":[3.5210804E1,1.6558903E1,1.8651903E1,1.3989572E1,2.5693307E0,3.886971E0,1.4764932E1,1.3547843E0,1.2145464E0,1.4192995E0,2.4676716E0,2.2979283E0,1.2467004E1],"tree_param":{"num_deleted":"0","num_feature":"13","num_nodes":"13","size_leaf_vector":"1"}},{"base_weights":[-6.9477364E-2,4.6786642E-1,-5.2927237E-2,-3.4367934E-2,5.8447916E-2],"categories":[],"categories_nodes":[],"categories_segments":[],"categories_sizes":[],"default_left":[0,0,0,0,0],"id":47,"left_children":[1,3,-1,-1,-1],"loss_changes":[8.244562E0,1.6635611E0,0E0,0E0,0E0],"parents":[2147483647,0,0,1,1],"right_children":[2,4,-1,-1,-1],"split_conditions":[1.41E0,3.7E0,-5.2927237E-2,-3.4367934E-2,5.8447916E-2],"split_indices":[6,9,0,0,0],"split_type":[0,0,0,0,0],"sum_hessian":[3.136734E1,1.4455836E1,1.6911505E1,1.5715727E0,1.2884264E1],"tree_param":{"num_deleted":"0","num_feature":"13","num_nodes":"5","size_leaf_vector":"1"}},{"base_weights":[-2.9599609E-2,-4.4926262E-1,4.2907518E-1,-5.1141914E-2,-1.2752989E-1,-2.149354E-2,5.320116E-1,-3.7677843E-2,2.5823245E-2,7.88414E-3,5.6511004E-2],"categories":[],"categories_nodes":[],"categories_segments":[],"categories_sizes":[],"default_left":[0,0,0,0,0,0,0,0,0,0,0],"id":48,"left_children":[1,3,5,-1,7,-1,9,-1,-1,-1,-1],"loss_changes":[6.243662E0,2.728238E-1,1.1439259E0,0E0,4.885524E-1,0E0,1.6061044E-1,0E0,0E0,0E0,0E0],"parents":[2147483647,0,0,1,1,2,2,4,4,6,6],"right_children":[2,4,6,-1,8,-1,10,-1,-1,-1,-1],"split_conditions":[7.6E2,2.63E0,2.37E0,-5.1141914E-2,1.307E1,-2.149354E-2,1.303E1,-3.7677843E-2,2.5823245E-2,7.88414E-3,5.6511004E-2],"split_indices":[12,6,6,0,0,0,0,0,0,0,0],"split_type":[0,0,0,0,0,0,0,0,0,0,0],"sum_hessian":[3.0435036E1,1.5904127E1,1.453091E1,1.2834932E1,3.069195E0,1.852556E0,1.2678353E1,1.8786509E0,1.1905441E0,1.0931671E0,1.1585186E1],"tree_param":{"num_deleted":"0","num_feature":"13","num_nodes":"11","size_leaf_vector":"1"}},{"base_weights":[8.79444E-2,4.839182E-1,-3.3653727E-1,5.7245404E-2,1.1006778E-1,2.5798324E-1,-4.3972278E-1,4.6094127E-2,-3.678244E-2,3.4959443E-2,3.678873E-3,-2.7443217E-3,-5.1023394E-2],"categories":[],"categories_nodes":[],"categories_segments":[],"categories_sizes":[],"default_left":[0,0,0,0,0,0,0,0,0,0,0,0,0],"id":49,"left_children":[1,3,5,-1,7,9,11,-1,-1,-1,-1,-1,-1],"loss_changes":[5.8868427E0,5.337367E-1,1.1578783E0,0E0,9.5599115E-1,5.093302E-2,4.1848254E-1,0E0,0E0,0E0,0E0,0E0,0E0],"parents":[2147483647,0,0,1,1,2,2,4,4,5,5,6,6],"right_children":[2,4,6,-1,8,10,12,-1,-1,-1,-1,-1,-1],"split_conditions":[3.95E0,7.2E2,1.41E0,5.7245404E-2,3.58E0,4.63E2,5.2E2,4.6094127E-2,-3.678244E-2,3.4959443E-2,3.678873E-3,-2.7443217E-3,-5.1023394E-2],"split_indices":[9,12,1,0,9,12,12,0,0,0,0,0,0],"split_type":[0,0,0,0,0,0,0,0,0,0,0,0,0],"sum_hessian":[3.3054398E1,1.7029018E1,1.6025381E1,1.3338851E1,3.690167E0,2.1481674E0,1.3877214E1,2.1483188E0,1.5418482E0,1.1085567E0,1.0396105E0,2.2296467E0,1.1647568E1],"tree_param":{"num_deleted":"0","num_feature":"13","num_nodes":"13","size_leaf_vector":"1"}},{"base_weights":[-6.816315E-2,4.564636E-1,-5.224675E-2,-3.322319E-2,5.704921E-2],"categories":[],"categories_nodes":[],"categories_segments":[],"categories_sizes":[],"default_left":[0,0,0,0,0],"id":50,"left_children":[1,3,-1,-1,-1],"loss_changes":[7.456993E0,1.5015936E0,0E0,0E0,0E0],"parents":[2147483647,0,0,1,1],"right_children":[2,4,-1,-1,-1],"split_conditions":[1.41E0,3.7E0,-5.224675E-2,-3.322319E-2,5.704921E-2],"split_indices":[6,9,0,0,0],"split_type":[0,0,0,0,0],"sum_hessian":[2.928656E1,1.3589162E1,1.5697399E1,1.4748123E0,1.2114349E1],"tree_param":{"num_deleted":"0","num_feature":"13","num_nodes":"5","size_leaf_vector":"1"}},{"base_weights":[-3.005524E-2,-4.4126126E-1,4.1595173E-1,-5.0785165E-2,-1.297759E-1,-3.0141545E-2,5.000673E-1,-3.6625814E-2,2.6776308E-2,5.5372804E-2,-6.247855E-3],"categories":[],"categories_nodes":[],"categories_segments":[],"categories_sizes":[],"default_left":[0,0,0,0,0,0,0,0,0,0,0],"id":51,"left_children":[1,3,5,-1,7,-1,9,-1,-1,-1,-1],"loss_changes":[5.587182E0,2.621286E-1,1.0346422E0,0E0,4.862191E-1,0E0,4.4172835E-1,0E0,0E0,0E0,0E0],"parents":[2147483647,0,0,1,1,2,2,4,4,6,6],"right_children":[2,4,6,-1,8,-1,10,-1,-1,-1,-1],"split_conditions":[7.6E2,6.8E2,2.17E0,-5.0785165E-2,2.3E0,-3.0141545E-2,1.32E2,-3.6625814E-2,2.6776308E-2,5.5372804E-2,-6.247855E-3],"split_indices":[12,12,6,0,5,0,4,0,0,0,0],"split_type":[0,0,0,0,0,0,0,0,0,0,0],"sum_hessian":[2.846356E1,1.4815095E1,1.3648465E1,1.1686333E1,3.1287625E0,1.1612834E0,1.2487182E1,2.011109E0,1.1176534E0,1.1414078E1,1.0731035E0],"tree_param":{"num_deleted":"0","num_feature":"13","num_nodes":"11","size_leaf_vector":"1"}},{"base_weights":[8.708409E-2,4.7220805E-1,-3.2661504E-1,5.6279965E-2,1.15539744E-1,2.4935313E-1,-4.3019122E-1,4.3897584E-2,-3.557807E-2,3.35425E-2,3.7600317E-3,-2.385644E-3,-5.0290525E-2],"categories":[],"categories_nodes":[],"categories_segments":[],"categories_sizes":[],"default_left":[0,0,0,0,0,0,0,0,0,0,0,0,0],"id":52,"left_children":[1,3,5,-1,7,9,11,-1,-1,-1,-1,-1,-1],"loss_changes":[5.256139E0,4.8402357E-1,1.0635259E0,0E0,8.7267774E-1,4.3455586E-2,4.002645E-1,0E0,0E0,0E0,0E0,0E0,0E0],"parents":[2147483647,0,0,1,1,2,2,4,4,5,5,6,6],"right_children":[2,4,6,-1,8,10,12,-1,-1,-1,-1,-1,-1],"split_conditions":[3.95E0,3.58E0,1.41E0,5.6279965E-2,7.18E2,4.63E2,5.2E2,4.3897584E-2,-3.557807E-2,3.35425E-2,3.7600317E-3,-2.385644E-3,-5.0290525E-2],"split_indices":[9,9,1,0,12,12,12,0,0,0,0,0,0],"split_type":[0,0,0,0,0,0,0,0,0,0,0,0,0],"sum_hessian":[3.1021927E1,1.5992572E1,1.5029355E1,1.2292433E1,3.700139E0,2.0762532E0,1.2953102E1,2.2350187E0,1.4651203E0,1.0609608E0,1.0152925E0,2.167719E0,1.0785383E1],"tree_param":{"num_deleted":"0","num_feature":"13","num_nodes":"13","size_leaf_vector":"1"}},{"base_weights":[-6.716446E-2,4.458441E-1,-5.161306E-2,-3.21387E-2,5.577567E-2],"categories":[],"categories_nodes":[],"categories_segments":[],"categories_sizes":[],"default_left":[0,0,0,0,0],"id":53,"left_children":[1,3,-1,-1,-1],"loss_changes":[6.756192E0,1.3607767E0,0E0,0E0,0E0],"parents":[2147483647,0,0,1,1],"right_children":[2,4,-1,-1,-1],"split_conditions":[1.41E0,3.7E0,-5.161306E-2,-3.21387E-2,5.577567E-2],"split_indices":[6,9,0,0,0],"split_type":[0,0,0,0,0],"sum_hessian":[2.7334406E1,1.2760569E1,1.4573838E1,1.3861141E0,1.13744545E1],"tree_param":{"num_deleted":"0","num_feature":"13","num_nodes":"5","size_leaf_vector":"1"}},{"base_weights":[-3.09093E-2,-4.335895E-1,4.0430433E-1,-5.0113168E-2,-1.231894E-1,-2.015957E-2,5.049844E-1,-3.5555653E-2,2.5548726E-2,6.32637E-3,5.399276E-2],"categories":[],"categories_nodes":[],"categories_segments":[],"categories_sizes":[],"default_left":[0,0,0,0,0,0,0,0,0,0,0],"id":54,"left_children":[1,3,5,-1,7,-1,9,-1,-1,-1,-1],"loss_changes":[5.0071363E0,2.4861574E-1,9.416561E-1,0E0,4.4029394E-1,0E0,1.5247107E-1,0E0,0E0,0E0,0E0],"parents":[2147483647,0,0,1,1,2,2,4,4,6,6],"right_children":[2,4,6,-1,8,-1,10,-1,-1,-1,-1],"split_conditions":[7.6E2,6.8E2,2.37E0,-5.0113168E-2,2.3E0,-2.015957E-2,1.303E1,-3.5555653E-2,2.5548726E-2,6.32637E-3,5.399276E-2],"split_indices":[12,12,6,0,5,0,0,0,0,0,0],"split_type":[0,0,0,0,0,0,0,0,0,0,0],"sum_hessian":[2.6570793E1,1.3803175E1,1.2767618E1,1.0831748E1,2.971427E0,1.6764257E0,1.1091192E1,1.8792927E0,1.0921341E0,1.019101E0,1.0072091E1],"tree_param":{"num_deleted":"0","num_feature":"13","num_nodes":"11","size_leaf_vector":"1"}},{"base_weights":[8.638215E-2,4.616859E-1,-3.1717765E-1,5.5096354E-2,1.1134029E-1,3.661374E-2,-3.9769745E-1,4.2355325E-2,-3.4328144E-2,5.084494E-3,-4.985555E-2],"categories":[],"categories_nodes":[],"categories_segments":[],"categories_sizes":[],"default_left":[0,0,0,0,0,0,0,0,0,0,0],"id":55,"left_children":[1,3,5,-1,7,-1,9,-1,-1,-1,-1],"loss_changes":[4.7007456E0,4.3871665E-1,9.754437E-1,0E0,7.841209E-1,0E0,6.574166E-1,0E0,0E0,0E0,0E0],"parents":[2147483647,0,0,1,1,2,2,4,4,6,6],"right_children":[2,4,6,-1,8,-1,10,-1,-1,-1,-1],"split_conditions":[3.95E0,3.58E0,1.19E0,5.5096354E-2,7.18E2,3.661374E-2,5.2E2,4.2355325E-2,-3.4328144E-2,5.084494E-3,-4.985555E-2],"split_indices":[9,9,1,0,12,0,12,0,0,0,0],"split_type":[0,0,0,0,0,0,0,0,0,0,0],"sum_hessian":[2.9069881E1,1.49876175E1,1.4082263E1,1.1487629E1,3.4999888E0,1.1105587E0,1.29717045E1,2.1155007E0,1.3844881E0,2.4723566E0,1.0499348E1],"tree_param":{"num_deleted":"0","num_feature":"13","num_nodes":"11","size_leaf_vector":"1"}},{"base_weights":[-6.5888114E-2,4.3634042E-1,-5.100375E-2,-3.103976E-2,5.4610338E-2],"categories":[],"categories_nodes":[],"categories_segments":[],"categories_sizes":[],"default_left":[0,0,0,0,0],"id":56,"left_children":[1,3,-1,-1,-1],"loss_changes":[6.1312923E0,1.2326334E0,0E0,0E0,0E0],"parents":[2147483647,0,0,1,1],"right_children":[2,4,-1,-1,-1],"split_conditions":[1.41E0,3.7E0,-5.100375E-2,-3.103976E-2,5.4610338E-2],"split_indices":[6,9,0,0,0],"split_type":[0,0,0,0,0],"sum_hessian":[2.5488943E1,1.1970595E1,1.3518347E1,1.2998157E0,1.067078E1],"tree_param":{"num_deleted":"0","num_feature":"13","num_nodes":"5","size_leaf_vector":"1"}},{"base_weights":[-3.1283446E-2,-4.260462E-1,3.9315534E-1,-4.944617E-2,-1.1704127E-1,-2.8110966E-2,4.7523597E-1,-3.4502577E-2,2.4389867E-2,5.3089347E-2,-6.358232E-3],"categories":[],"categories_nodes":[],"categories_segments":[],"categories_sizes":[],"default_left":[0,0,0,0,0,0,0,0,0,0,0],"id":57,"left_children":[1,3,5,-1,7,-1,9,-1,-1,-1,-1],"loss_changes":[4.493096E0,2.3504734E-1,8.50888E-1,0E0,3.9863807E-1,0E0,3.914008E-1,0E0,0E0,0E0,0E0],"parents":[2147483647,0,0,1,1,2,2,4,4,6,6],"right_children":[2,4,6,-1,8,-1,10,-1,-1,-1,-1],"split_conditions":[7.6E2,6.8E2,2.17E0,-4.944617E-2,2.3E0,-2.8110966E-2,1.32E2,-3.4502577E-2,2.4389867E-2,5.3089347E-2,-6.358232E-3],"split_indices":[12,12,6,0,5,0,4,0,0,0,0],"split_type":[0,0,0,0,0,0,0,0,0,0,0],"sum_hessian":[2.481633E1,1.2855696E1,1.1960635E1,1.0033947E1,2.8217483E0,1.0348543E0,1.092578E1,1.7564151E0,1.0653331E0,9.916191E0,1.0095897E0],"tree_param":{"num_deleted":"0","num_feature":"13","num_nodes":"11","size_leaf_vector":"1"}},{"base_weights":[8.569272E-2,4.5155874E-1,-3.083157E-1,5.401159E-2,1.0623409E-1,2.3691667E-2,-4.1237903E-1,4.0893685E-2,-3.320869E-2,-2.0841453E-3,-4.8879147E-2],"categories":[],"categories_nodes":[],"categories_segments":[],"categories_sizes":[],"default_left":[0,0,0,0,0,0,0,0,0,0,0],"id":58,"left_children":[1,3,5,-1,7,-1,9,-1,-1,-1,-1],"loss_changes":[4.207409E0,4.0252423E-1,9.023782E-1,0E0,7.082337E-1,0E0,3.57033E-1,0E0,0E0,0E0,0E0],"parents":[2147483647,0,0,1,1,2,2,4,4,6,6],"right_children":[2,4,6,-1,8,-1,10,-1,-1,-1,-1],"split_conditions":[3.95E0,3.58E0,1.41E0,5.401159E-2,7.18E2,2.3691667E-2,5.2E2,4.0893685E-2,-3.320869E-2,-2.0841453E-3,-4.8879147E-2],"split_indices":[9,9,1,0,12,0,12,0,0,0,0],"split_type":[0,0,0,0,0,0,0,0,0,0,0],"sum_hessian":[2.7221052E1,1.4038863E1,1.3182189E1,1.0724521E1,3.3143423E0,1.9081123E0,1.1274077E1,2.000111E0,1.3142312E0,2.0487952E0,9.225282E0],"tree_param":{"num_deleted":"0","num_feature":"13","num_nodes":"11","size_leaf_vector":"1"}},{"base_weights":[-6.506131E-2,4.2729086E-1,-5.041296E-2,-2.9969199E-2,5.3517867E-2],"categories":[],"categories_nodes":[],"categories_segments":[],"categories_sizes":[],"default_left":[0,0,0,0,0],"id":59,"left_children":[1,3,-1,-1,-1],"loss_changes":[5.5672636E0,1.1181736E0,0E0,0E0,0E0],"parents":[2147483647,0,0,1,1],"right_children":[2,4,-1,-1,-1],"split_conditions":[1.41E0,3.7E0,-5.041296E-2,-2.9969199E-2,5.3517867E-2],"split_indices":[6,9,0,0,0],"split_type":[0,0,0,0,0],"sum_hessian":[2.3756907E1,1.1211566E1,1.2545341E1,1.2190953E0,9.99247E0],"tree_param":{"num_deleted":"0","num_feature":"13","num_nodes":"5","size_leaf_vector":"1"}},{"base_weights":[-3.219749E-2,-4.188015E-1,3.8269877E-1,-4.8802875E-2,-1.1126907E-1,-1.8844806E-2,4.813636E-1,-3.3466112E-2,2.3298724E-2,5.1900633E-2,1.0199176E-2],"categories":[],"categories_nodes":[],"categories_segments":[],"categories_sizes":[],"default_left":[0,0,0,0,0,0,0,0,0,0,0],"id":60,"left_children":[1,3,5,-1,7,-1,9,-1,-1,-1,-1],"loss_changes":[4.0332527E0,2.2196126E-1,7.7647173E-1,0E0,3.609541E-1,0E0,9.926796E-2,0E0,0E0,0E0,0E0],"parents":[2147483647,0,0,1,1,2,2,4,4,6,6],"right_children":[2,4,6,-1,8,-1,10,-1,-1,-1,-1],"split_conditions":[7.6E2,6.8E2,2.37E0,-4.8802875E-2,2.3E0,-1.8844806E-2,3.3E0,-3.3466112E-2,2.3298724E-2,5.1900633E-2,1.0199176E-2],"split_indices":[12,12,6,0,5,0,5,0,0,0,0],"split_type":[0,0,0,0,0,0,0,0,0,0,0],"sum_hessian":[2.314566E1,1.1976469E1,1.1169192E1,9.296792E0,2.6796772E0,1.5112059E0,9.657987E0,1.6420217E0,1.0376556E0,8.4513445E0,1.2066416E0],"tree_param":{"num_deleted":"0","num_feature":"13","num_nodes":"11","size_leaf_vector":"1"}},{"base_weights":[8.4928535E-2,4.42487E-1,-2.995885E-1,5.2989554E-2,1.0251826E-1,1.3286364E-1,-4.3298748E-1,3.950272E-2,-3.2039534E-2,-3.0177519E-2,4.2445224E-2,-4.823786E-2,1.3812905E-3],"categories":[],"categories_nodes":[],"categories_segments":[],"categories_sizes":[],"default_left":[0,0,0,0,0,0,0,0,0,0,0,0,0],"id":61,"left_children":[1,3,5,-1,7,9,11,-1,-1,-1,-1,-1,-1],"loss_changes":[3.7751427E0,3.6562252E-1,8.2836413E-1,0E0,6.374932E-1,6.2429476E-1,2.3720086E-1,0E0,0E0,0E0,0E0,0E0,0E0],"parents":[2147483647,0,0,1,1,2,2,4,4,5,5,6,6],"right_children":[2,4,6,-1,8,10,12,-1,-1,-1,-1,-1,-1],"split_conditions":[3.95E0,3.58E0,5.2E2,5.2989554E-2,7.18E2,1.39E0,3.54E0,3.950272E-2,-3.2039534E-2,-3.0177519E-2,4.2445224E-2,-4.823786E-2,1.3812905E-3],"split_indices":[9,9,12,0,12,6,6,0,0,0,0,0,0],"split_type":[0,0,0,0,0,0,0,0,0,0,0,0,0],"sum_hessian":[2.5493923E1,1.3131923E1,1.2362E1,1.000174E1,3.1301827E0,2.915278E0,9.446722E0,1.8893495E0,1.2408332E0,1.1564907E0,1.7587872E0,8.434689E0,1.0120337E0],"tree_param":{"num_deleted":"0","num_feature":"13","num_nodes":"13","size_leaf_vector":"1"}},{"base_weights":[-6.363823E-2,4.1911185E-1,-4.9836922E-2,-2.892944E-2,5.252121E-2],"categories":[],"categories_nodes":[],"categories_segments":[],"categories_sizes":[],"default_left":[0,0,0,0,0],"id":62,"left_children":[1,3,-1,-1,-1],"loss_changes":[5.0654078E0,1.0169177E0,0E0,0E0,0E0],"parents":[2147483647,0,0,1,1],"right_children":[2,4,-1,-1,-1],"split_conditions":[1.41E0,3.7E0,-4.9836922E-2,-2.892944E-2,5.252121E-2],"split_indices":[6,9,0,0,0],"split_type":[0,0,0,0,0],"sum_hessian":[2.2141079E1,1.0508154E1,1.1632925E1,1.1439118E0,9.364242E0],"tree_param":{"num_deleted":"0","num_feature":"13","num_nodes":"5","size_leaf_vector":"1"}},{"base_weights":[-3.1626847E-2,-4.1146302E-1,3.7299883E-1,-4.789947E-2,-9.744796E-2,-1.799132E-2,4.704356E-1,-3.2575782E-2,2.243075E-2,5.085776E-2,9.879417E-3],"categories":[],"categories_nodes":[],"categories_segments":[],"categories_sizes":[],"default_left":[0,0,0,0,0,0,0,0,0,0,0],"id":63,"left_children":[1,3,5,-1,7,-1,9,-1,-1,-1,-1],"loss_changes":[3.6308959E0,2.108903E-1,7.0311105E-1,0E0,3.2321376E-1,0E0,9.202719E-2,0E0,0E0,0E0,0E0],"parents":[2147483647,0,0,1,1,2,2,4,4,6,6],"right_children":[2,4,6,-1,8,-1,10,-1,-1,-1,-1],"split_conditions":[7.6E2,2.63E0,2.37E0,-4.789947E-2,1.307E1,-1.799132E-2,3.3E0,-3.2575782E-2,2.243075E-2,5.085776E-2,9.879417E-3],"split_indices":[12,6,6,0,0,0,5,0,0,0,0],"split_type":[0,0,0,0,0,0,0,0,0,0,0],"sum_hessian":[2.1625984E1,1.1145974E1,1.0480011E1,8.740801E0,2.4051728E0,1.4433205E0,9.036691E0,1.3996067E0,1.0055661E0,7.8614025E0,1.1752877E0],"tree_param":{"num_deleted":"0","num_feature":"13","num_nodes":"11","size_leaf_vector":"1"}},{"base_weights":[8.3949864E-2,4.3410373E-1,-2.928748E-1,5.2043956E-2,9.897646E-2,2.2263585E-2,-3.969695E-1,3.8174137E-2,-3.090976E-2,-1.7016437E-3,-4.755438E-2],"categories":[],"categories_nodes":[],"categories_segments":[],"categories_sizes":[],"default_left":[0,0,0,0,0,0,0,0,0,0,0],"id":64,"left_children":[1,3,5,-1,7,-1,9,-1,-1,-1,-1],"loss_changes":[3.4046342E0,3.3267617E-1,7.624414E-1,0E0,5.7434416E-1,0E0,3.1464386E-1,0E0,0E0,0E0,0E0],"parents":[2147483647,0,0,1,1,2,2,4,4,6,6],"right_children":[2,4,6,-1,8,-1,10,-1,-1,-1,-1],"split_conditions":[3.95E0,3.58E0,1.41E0,5.2043956E-2,7.18E2,2.2263585E-2,5.2E2,3.8174137E-2,-3.090976E-2,-1.7016437E-3,-4.755438E-2],"split_indices":[9,9,1,0,12,0,12,0,0,0,0],"split_type":[0,0,0,0,0,0,0,0,0,0,0],"sum_hessian":[2.3839563E1,1.22782955E1,1.1561269E1,9.323423E0,2.954872E0,1.7509942E0,9.810274E0,1.7835404E0,1.1713315E0,1.8895845E0,7.92069E0],"tree_param":{"num_deleted":"0","num_feature":"13","num_nodes":"11","size_leaf_vector":"1"}},{"base_weights":[-6.3440464E-2,4.1032612E-1,-4.925153E-2,-2.7917132E-2,5.150819E-2],"categories":[],"categories_nodes":[],"categories_segments":[],"categories_sizes":[],"default_left":[0,0,0,0,0],"id":65,"left_children":[1,3,-1,-1,-1],"loss_changes":[4.5909643E0,9.2431664E-1,0E0,0E0,0E0],"parents":[2147483647,0,0,1,1],"right_children":[2,4,-1,-1,-1],"split_conditions":[1.41E0,3.7E0,-4.925153E-2,-2.7917132E-2,5.150819E-2],"split_indices":[6,9,0,0,0],"split_type":[0,0,0,0,0],"sum_hessian":[2.0590143E1,9.806219E0,1.0783924E1,1.0737662E0,8.732452E0],"tree_param":{"num_deleted":"0","num_feature":"13","num_nodes":"5","size_leaf_vector":"1"}},{"base_weights":[-3.2046538E-2,-4.3519446E-1,3.3382192E-1,-7.741706E-3,-4.7712203E-2,-3.13749E-2,4.506232E-1,-2.733232E-3,5.0895106E-2],"categories":[],"categories_nodes":[],"categories_segments":[],"categories_sizes":[],"default_left":[0,0,0,0,0,0,0,0,0],"id":66,"left_children":[1,3,5,-1,-1,-1,7,-1,-1],"loss_changes":[3.2720969E0,1.2086582E-1,1.0247626E0,0E0,0E0,0E0,3.011949E-1,0E0,0E0],"parents":[2147483647,0,0,1,1,2,2,6,6],"right_children":[2,4,6,-1,-1,-1,8,-1,-1],"split_conditions":[7.35E2,1.76E1,2.17E0,-7.741706E-3,-4.7712203E-2,-3.13749E-2,1.303E1,-2.733232E-3,5.0895106E-2],"split_indices":[12,3,6,0,0,0,0,0,0],"split_type":[0,0,0,0,0,0,0,0,0],"sum_hessian":[2.0198902E1,9.519712E0,1.0679189E1,1.2971641E0,8.2225485E0,1.3741932E0,9.304996E0,1.0698379E0,8.235158E0],"tree_param":{"num_deleted":"0","num_feature":"13","num_nodes":"9","size_leaf_vector":"1"}},{"base_weights":[8.321107E-2,4.2618325E-1,-2.8449297E-1,5.1148225E-2,9.552699E-2,1.2636031E-1,-4.1757923E-1,3.689445E-2,-2.9818986E-2,-2.842237E-2,3.9879188E-2,-4.6847228E-2,-9.907664E-4],"categories":[],"categories_nodes":[],"categories_segments":[],"categories_sizes":[],"default_left":[0,0,0,0,0,0,0,0,0,0,0,0,0],"id":67,"left_children":[1,3,5,-1,7,9,11,-1,-1,-1,-1,-1,-1],"loss_changes":[3.0652816E0,3.030994E-1,7.015727E-1,0E0,5.1786065E-1,5.239589E-1,1.861304E-1,0E0,0E0,0E0,0E0,0E0,0E0],"parents":[2147483647,0,0,1,1,2,2,4,4,5,5,6,6],"right_children":[2,4,6,-1,8,10,12,-1,-1,-1,-1,-1,-1],"split_conditions":[3.95E0,3.58E0,5.2E2,5.1148225E-2,7.18E2,1.39E0,3.25E0,3.689445E-2,-2.9818986E-2,-2.842237E-2,3.9879188E-2,-4.6847228E-2,-9.907664E-4],"split_indices":[9,9,12,0,12,6,5,0,0,0,0,0,0],"split_type":[0,0,0,0,0,0,0,0,0,0,0,0,0],"sum_hessian":[2.234456E1,1.1478794E1,1.0865767E1,8.690141E0,2.788654E0,2.6709037E0,8.194863E0,1.682888E0,1.105766E0,1.0480673E0,1.6228364E0,7.15278E0,1.0420827E0],"tree_param":{"num_deleted":"0","num_feature":"13","num_nodes":"13","size_leaf_vector":"1"}},{"base_weights":[-6.2557526E-2,4.027555E-1,-4.869899E-2,-2.694994E-2,5.06152E-2],"categories":[],"categories_nodes":[],"categories_segments":[],"categories_sizes":[],"default_left":[0,0,0,0,0],"id":68,"left_children":[1,3,-1,-1,-1],"loss_changes":[4.1839714E0,8.439758E-1,0E0,0E0,0E0],"parents":[2147483647,0,0,1,1],"right_children":[2,4,-1,-1,-1],"split_conditions":[1.41E0,3.7E0,-4.869899E-2,-2.694994E-2,5.06152E-2],"split_indices":[6,9,0,0,0],"split_type":[0,0,0,0,0],"sum_hessian":[1.9192183E1,9.179548E0,1.0012635E1,1.0095131E0,8.170035E0],"tree_param":{"num_deleted":"0","num_feature":"13","num_nodes":"5","size_leaf_vector":"1"}},{"base_weights":[-3.202958E-2,-4.276121E-1,3.2582185E-1,-7.360879E-3,-4.7067583E-2,-3.0329159E-2,4.4052383E-1,-2.6122532E-3,4.995202E-2],"categories":[],"categories_nodes":[],"categories_segments":[],"categories_sizes":[],"default_left":[0,0,0,0,0,0,0,0,0],"id":69,"left_children":[1,3,5,-1,-1,-1,7,-1,-1],"loss_changes":[2.949266E0,1.1567211E-1,9.266163E-1,0E0,0E0,0E0,2.8016508E-1,0E0,0E0],"parents":[2147483647,0,0,1,1,2,2,6,6],"right_children":[2,4,6,-1,-1,-1,8,-1,-1],"split_conditions":[7.35E2,1.76E1,2.17E0,-7.360879E-3,-4.7067583E-2,-3.0329159E-2,1.303E1,-2.6122532E-3,4.995202E-2],"split_indices":[12,3,6,0,0,0,0,0,0],"split_type":[0,0,0,0,0,0,0,0,0],"sum_hessian":[1.8849852E1,8.860347E0,9.989506E0,1.254781E0,7.605566E0,1.2869142E0,8.702591E0,1.0392894E0,7.663302E0],"tree_param":{"num_deleted":"0","num_feature":"13","num_nodes":"9","size_leaf_vector":"1"}},{"base_weights":[8.2756825E-2,4.493696E-1,-2.4780509E-1,5.02743E-2,9.539221E-3,1.6705026E-1,-3.9465237E-1,-2.7412325E-2,4.1838862E-2,6.226724E-3,-4.6621487E-2],"categories":[],"categories_nodes":[],"categories_segments":[],"categories_sizes":[],"default_left":[0,0,0,0,0,0,0,0,0,0,0],"id":70,"left_children":[1,3,5,-1,-1,7,9,-1,-1,-1,-1],"loss_changes":[2.7640965E0,1.548438E-1,8.064276E-1,0E0,0E0,5.4496026E-1,3.3230186E-1,0E0,0E0,0E0,0E0],"parents":[2147483647,0,0,1,1,2,2,5,5,6,6],"right_children":[2,4,6,-1,-1,8,10,-1,-1,-1,-1],"split_conditions":[3.84E0,3.58E0,8.9E1,5.02743E-2,9.539221E-3,9.9E-1,4.88E2,-2.7412325E-2,4.1838862E-2,6.226724E-3,-4.6621487E-2],"split_indices":[9,9,4,0,0,6,12,0,0,0,0],"split_type":[0,0,0,0,0,0,0,0,0,0,0],"sum_hessian":[2.0889427E1,9.734205E0,1.1155222E1,8.093571E0,1.6406337E0,2.8803694E0,8.274853E0,1.0124916E0,1.867878E0,1.1380979E0,7.136755E0],"tree_param":{"num_deleted":"0","num_feature":"13","num_nodes":"11","size_leaf_vector":"1"}},{"base_weights":[-6.2465157E-2,3.9439553E-1,-4.8120078E-2,-1.629073E-2,4.9410183E-2],"categories":[],"categories_nodes":[],"categories_segments":[],"categories_sizes":[],"default_left":[0,0,0,0,0],"id":71,"left_children":[1,3,-1,-1,-1],"loss_changes":[3.7904909E0,6.1119616E-1,0E0,0E0,0E0],"parents":[2147483647,0,0,1,1],"right_children":[2,4,-1,-1,-1],"split_conditions":[1.41E0,3.9E0,-4.8120078E-2,-1.629073E-2,4.9410183E-2],"split_indices":[6,9,0,0,0],"split_type":[0,0,0,0,0],"sum_hessian":[1.782193E1,8.550764E0,9.271167E0,1.2014506E0,7.3493133E0],"tree_param":{"num_deleted":"0","num_feature":"13","num_nodes":"5","size_leaf_vector":"1"}},{"base_weights":[-3.2682132E-2,-4.2026556E-1,3.179819E-1,-7.1198507E-3,-4.6430316E-2,-2.9307542E-2,4.307981E-1,-2.5564767E-3,4.9056794E-2],"categories":[],"categories_nodes":[],"categories_segments":[],"categories_sizes":[],"default_left":[0,0,0,0,0,0,0,0,0],"id":72,"left_children":[1,3,5,-1,-1,-1,7,-1,-1],"loss_changes":[2.6615877E0,1.0937393E-1,8.3867705E-1,0E0,0E0,0E0,2.6153958E-1,0E0,0E0],"parents":[2147483647,0,0,1,1,2,2,6,6],"right_children":[2,4,6,-1,-1,-1,8,-1,-1],"split_conditions":[7.35E2,1.76E1,2.17E0,-7.1198507E-3,-4.6430316E-2,-2.9307542E-2,1.303E1,-2.5564767E-3,4.9056794E-2],"split_indices":[12,3,6,0,0,0,0,0,0],"split_type":[0,0,0,0,0,0,0,0,0],"sum_hessian":[1.7599968E1,8.265621E0,9.334346E0,1.2191001E0,7.046521E0,1.2057445E0,8.128601E0,1.0075895E0,7.121012E0],"tree_param":{"num_deleted":"0","num_feature":"13","num_nodes":"9","size_leaf_vector":"1"}},{"base_weights":[8.23552E-2,4.404049E-1,-2.416906E-1,4.9445566E-2,9.158215E-3,1.6227582E-1,-3.8678855E-1,-1.764076E-2,3.8836025E-2,6.0811387E-3,-4.5978766E-2],"categories":[],"categories_nodes":[],"categories_segments":[],"categories_sizes":[],"default_left":[0,0,0,0,0,0,0,0,0,0,0],"id":73,"left_children":[1,3,5,-1,-1,7,9,-1,-1,-1,-1],"loss_changes":[2.4935844E0,1.456852E-1,7.3365504E-1,0E0,0E0,3.5405436E-1,3.127699E-1,0E0,0E0,0E0,0E0],"parents":[2147483647,0,0,1,1,2,2,5,5,6,6],"right_children":[2,4,6,-1,-1,8,10,-1,-1,-1,-1],"split_conditions":[3.84E0,3.58E0,8.9E1,4.9445566E-2,9.158215E-3,8.2E-1,4.88E2,-1.764076E-2,3.8836025E-2,6.0811387E-3,-4.5978766E-2],"split_indices":[9,9,4,0,0,10,12,0,0,0,0],"split_type":[0,0,0,0,0,0,0,0,0,0,0],"sum_hessian":[1.957447E1,9.128731E0,1.044574E1,7.5425067E0,1.5862241E0,2.7291474E0,7.716593E0,1.1804754E0,1.5486722E0,1.105442E0,6.6111503E0],"tree_param":{"num_deleted":"0","num_feature":"13","num_nodes":"11","size_leaf_vector":"1"}},{"base_weights":[-6.1741922E-2,3.8613722E-1,-4.754844E-2,-1.5635764E-2,4.8550338E-2],"categories":[],"categories_nodes":[],"categories_segments":[],"categories_sizes":[],"default_left":[0,0,0,0,0],"id":74,"left_children":[1,3,-1,-1,-1],"loss_changes":[3.4446054E0,5.611806E-1,0E0,0E0,0E0],"parents":[2147483647,0,0,1,1],"right_children":[2,4,-1,-1,-1],"split_conditions":[1.41E0,3.9E0,-4.754844E-2,-1.5635764E-2,4.8550338E-2],"split_indices":[6,9,0,0,0],"split_type":[0,0,0,0,0],"sum_hessian":[1.6597878E1,8.002181E0,8.595696E0,1.1500226E0,6.8521585E0],"tree_param":{"num_deleted":"0","num_feature":"13","num_nodes":"5","size_leaf_vector":"1"}},{"base_weights":[-3.3551548E-2,-4.1309813E-1,3.1038147E-1,-6.90036E-3,-4.580368E-2,-2.8310452E-2,4.2139712E-1,4.8079517E-2,4.445552E-4],"categories":[],"categories_nodes":[],"categories_segments":[],"categories_sizes":[],"default_left":[0,0,0,0,0,0,0,0,0],"id":75,"left_children":[1,3,5,-1,-1,-1,7,-1,-1],"loss_changes":[2.4055188E0,1.0326862E-1,7.599165E-1,0E0,0E0,0E0,2.1067178E-1,0E0,0E0],"parents":[2147483647,0,0,1,1,2,2,6,6],"right_children":[2,4,6,-1,-1,-1,8,-1,-1],"split_conditions":[7.35E2,1.76E1,2.17E0,-6.90036E-3,-4.580368E-2,-2.8310452E-2,1.27E2,4.8079517E-2,4.445552E-4],"split_indices":[12,3,6,0,0,0,4,0,0],"split_type":[0,0,0,0,0,0,0,0,0],"sum_hessian":[1.6445421E1,7.722344E0,8.723078E0,1.1849225E0,6.537421E0,1.1303159E0,7.5927615E0,6.5119615E0,1.0808002E0],"tree_param":{"num_deleted":"0","num_feature":"13","num_nodes":"9","size_leaf_vector":"1"}},{"base_weights":[8.207949E-2,4.317483E-1,-2.3505487E-1,4.8645135E-2,8.801436E-3,1.5782043E-1,-3.7897474E-1,-1.6882423E-2,3.7457105E-2,5.943183E-3,-4.5335688E-2],"categories":[],"categories_nodes":[],"categories_segments":[],"categories_sizes":[],"default_left":[0,0,0,0,0,0,0,0,0,0,0],"id":76,"left_children":[1,3,5,-1,-1,7,9,-1,-1,-1,-1],"loss_changes":[2.2490232E0,1.3700259E-1,6.706369E-1,0E0,0E0,3.1828606E-1,2.9436183E-1,0E0,0E0,0E0,0E0],"parents":[2147483647,0,0,1,1,2,2,5,5,6,6],"right_children":[2,4,6,-1,-1,8,10,-1,-1,-1,-1],"split_conditions":[3.84E0,3.58E0,8.9E1,4.8645135E-2,8.801436E-3,8.2E-1,4.88E2,-1.6882423E-2,3.7457105E-2,5.943183E-3,-4.5335688E-2],"split_indices":[9,9,4,0,0,10,12,0,0,0,0],"split_type":[0,0,0,0,0,0,0,0,0,0,0],"sum_hessian":[1.8366037E1,8.563078E0,9.802959E0,7.0292253E0,1.5338522E0,2.602371E0,7.2005887E0,1.126237E0,1.4761338E0,1.0736301E0,6.1269584E0],"tree_param":{"num_deleted":"0","num_feature":"13","num_nodes":"11","size_leaf_vector":"1"}},{"base_weights":[-6.0955577E-2,3.7832758E-1,-4.6985622E-2,-1.50093455E-2,4.773316E-2],"categories":[],"categories_nodes":[],"categories_segments":[],"categories_sizes":[],"default_left":[0,0,0,0,0],"id":77,"left_children":[1,3,-1,-1,-1],"loss_changes":[3.1370282E0,5.1613617E-1,0E0,0E0,0E0],"parents":[2147483647,0,0,1,1],"right_children":[2,4,-1,-1,-1],"split_conditions":[1.41E0,3.9E0,-4.6985622E-2,-1.50093455E-2,4.773316E-2],"split_indices":[6,9,0,0,0],"split_type":[0,0,0,0,0],"sum_hessian":[1.5474871E1,7.4963207E0,7.97855E0,1.1014487E0,6.394872E0],"tree_param":{"num_deleted":"0","num_feature":"13","num_nodes":"5","size_leaf_vector":"1"}},{"base_weights":[-3.4340624E-2,-3.7801787E-1,3.3031592E-1,-4.5141414E-2,-7.1052583E-3,-1.2567284E-2,4.368336E-2],"categories":[],"categories_nodes":[],"categories_segments":[],"categories_sizes":[],"default_left":[0,0,0,0,0,0,0],"id":78,"left_children":[1,3,5,-1,-1,-1,-1],"loss_changes":[2.17748E0,1.6840112E-1,4.6679592E-1,0E0,0E0,0E0,0E0],"parents":[2147483647,0,0,1,1,2,2],"right_children":[2,4,6,-1,-1,-1,-1],"split_conditions":[7.6E2,6.8E2,1.303E1,-4.5141414E-2,-7.1052583E-3,-1.2567284E-2,4.368336E-2],"split_indices":[12,12,0,0,0,0,0],"split_type":[0,0,0,0,0,0,0],"sum_hessian":[1.5378444E1,7.8980966E0,7.480347E0,5.9942775E0,1.9038193E0,1.3824449E0,6.0979023E0],"tree_param":{"num_deleted":"0","num_feature":"13","num_nodes":"7","size_leaf_vector":"1"}},{"base_weights":[8.1811994E-2,4.2339084E-1,-2.286324E-1,4.790346E-2,8.160012E-3,1.535029E-1,-3.7121996E-1,-1.6156098E-2,3.614456E-2,5.8123916E-3,-4.469082E-2],"categories":[],"categories_nodes":[],"categories_segments":[],"categories_sizes":[],"default_left":[0,0,0,0,0,0,0,0,0,0,0],"id":79,"left_children":[1,3,5,-1,-1,7,9,-1,-1,-1,-1],"loss_changes":[2.0312498E0,1.3276827E-1,6.1309075E-1,0E0,0E0,2.864444E-1,2.7701795E-1,0E0,0E0,0E0,0E0],"parents":[2147483647,0,0,1,1,2,2,5,5,6,6],"right_children":[2,4,6,-1,-1,8,10,-1,-1,-1,-1],"split_conditions":[3.84E0,1.303E1,8.9E1,4.790346E-2,8.160012E-3,8.2E-1,4.88E2,-1.6156098E-2,3.614456E-2,5.8123916E-3,-4.469082E-2],"split_indices":[9,0,4,0,0,10,12,0,0,0,0],"split_type":[0,0,0,0,0,0,0,0,0,0,0],"sum_hessian":[1.724242E1,8.036318E0,9.206101E0,6.5658493E0,1.4704685E0,2.4808528E0,6.725249E0,1.0750475E0,1.4058053E0,1.0426793E0,5.6825695E0],"tree_param":{"num_deleted":"0","num_feature":"13","num_nodes":"11","size_leaf_vector":"1"}},{"base_weights":[-6.0246218E-2,3.7074292E-1,-4.642571E-2,4.7057483E-2,-1.4084302E-2],"categories":[],"categories_nodes":[],"categories_segments":[],"categories_sizes":[],"default_left":[0,0,0,0,0],"id":80,"left_children":[1,3,-1,-1,-1],"loss_changes":[2.8600223E0,4.76133E-1,0E0,0E0,0E0],"parents":[2147483647,0,0,1,1],"right_children":[2,4,-1,-1,-1],"split_conditions":[1.41E0,9.06E-1,-4.642571E-2,4.7057483E-2,-1.4084302E-2],"split_indices":[6,10,0,0,0],"split_type":[0,0,0,0,0],"sum_hessian":[1.44366865E1,7.024966E0,7.411721E0,5.945009E0,1.0799564E0],"tree_param":{"num_deleted":"0","num_feature":"13","num_nodes":"5","size_leaf_vector":"1"}},{"base_weights":[-3.4865525E-2,-4.1983344E-2,2.784454E-1,-3.0612057E-2,4.165168E-1,8.4509E-3,4.678708E-2],"categories":[],"categories_nodes":[],"categories_segments":[],"categories_sizes":[],"default_left":[0,0,0,0,0,0,0],"id":81,"left_children":[1,-1,3,-1,5,-1,-1],"loss_changes":[1.9797189E0,0E0,8.6326355E-1,0E0,9.34118E-2,0E0,0E0],"parents":[2147483647,0,0,2,2,4,4],"right_children":[2,-1,4,-1,6,-1,-1],"split_conditions":[2.37E0,-4.1983344E-2,6.72E2,-3.0612057E-2,3.93E0,8.4509E-3,4.678708E-2],"split_indices":[6,0,12,0,9,0,0],"split_type":[0,0,0,0,0,0,0],"sum_hessian":[1.4444379E1,6.3285027E0,8.115876E0,1.3181179E0,6.7977586E0,1.2650061E0,5.5327525E0],"tree_param":{"num_deleted":"0","num_feature":"13","num_nodes":"7","size_leaf_vector":"1"}},{"base_weights":[8.0793284E-2,4.1495407E-1,-2.2310358E-1,4.714867E-2,7.645439E-3,1.4937396E-1,-3.6430472E-1,-1.5460416E-2,3.4898475E-2,5.578402E-3,-4.406197E-2],"categories":[],"categories_nodes":[],"categories_segments":[],"categories_sizes":[],"default_left":[0,0,0,0,0,0,0,0,0,0,0],"id":82,"left_children":[1,3,5,-1,-1,7,9,-1,-1,-1,-1],"loss_changes":[1.8397318E0,1.2745392E-1,5.6251806E-1,0E0,0E0,2.5812018E-1,2.5848192E-1,0E0,0E0,0E0,0E0],"parents":[2147483647,0,0,1,1,2,2,5,5,6,6],"right_children":[2,4,6,-1,-1,8,10,-1,-1,-1,-1],"split_conditions":[3.84E0,3.58E0,8.9E1,4.714867E-2,7.645439E-3,8.2E-1,4.88E2,-1.5460416E-2,3.4898475E-2,5.578402E-3,-4.406197E-2],"split_indices":[9,9,4,0,0,10,12,0,0,0,0],"split_type":[0,0,0,0,0,0,0,0,0,0,0],"sum_hessian":[1.6204796E1,7.5440354E0,8.66076E0,6.1277676E0,1.4162676E0,2.3647785E0,6.2959814E0,1.0267143E0,1.3380642E0,1.0092769E0,5.2867045E0],"tree_param":{"num_deleted":"0","num_feature":"13","num_nodes":"11","size_leaf_vector":"1"}},{"base_weights":[-5.8652025E-2,3.641625E-1,-4.587942E-2,-1.4173766E-2,4.6239413E-2],"categories":[],"categories_nodes":[],"categories_segments":[],"categories_sizes":[],"default_left":[0,0,0,0,0],"id":83,"left_children":[1,3,-1,-1,-1],"loss_changes":[2.62345E0,4.4406307E-1,0E0,0E0,0E0],"parents":[2147483647,0,0,1,1],"right_children":[2,4,-1,-1,-1],"split_conditions":[1.41E0,3.9E0,-4.587942E-2,-1.4173766E-2,4.6239413E-2],"split_indices":[6,9,0,0,0],"split_type":[0,0,0,0,0],"sum_hessian":[1.3518787E1,6.616893E0,6.901894E0,1.0038903E0,5.613003E0],"tree_param":{"num_deleted":"0","num_feature":"13","num_nodes":"5","size_leaf_vector":"1"}},{"base_weights":[-3.5188366E-2,-3.9392865E-1,2.8997535E-1,-5.801521E-3,-4.4007104E-2,-2.0075422E-2,4.1360688E-1,4.532459E-2,9.431555E-3],"categories":[],"categories_nodes":[],"categories_segments":[],"categories_sizes":[],"default_left":[0,0,0,0,0,0,0,0,0],"id":84,"left_children":[1,3,5,-1,-1,-1,7,-1,-1],"loss_changes":[1.8081434E0,8.805585E-2,5.8011055E-1,0E0,0E0,0E0,4.4216275E-2,0E0,0E0],"parents":[2147483647,0,0,1,1,2,2,6,6],"right_children":[2,4,6,-1,-1,-1,8,-1,-1],"split_conditions":[7.35E2,1.76E1,2.37E0,-5.801521E-3,-4.4007104E-2,-2.0075422E-2,3.25E0,4.532459E-2,9.431555E-3],"split_indices":[12,3,6,0,0,0,5,0,0],"split_type":[0,0,0,0,0,0,0,0,0],"sum_hessian":[1.352142E1,6.3282423E0,7.1931777E0,1.0369114E0,5.291331E0,1.321993E0,5.871185E0,4.849587E0,1.0215975E0],"tree_param":{"num_deleted":"0","num_feature":"13","num_nodes":"9","size_leaf_vector":"1"}},{"base_weights":[8.013337E-2,4.639114E-2,-1.7217068E-1,1.8726173E-1,-3.3663452E-1,-1.8320158E-2,3.857514E-2,5.1358785E-3,-4.1904427E-2],"categories":[],"categories_nodes":[],"categories_segments":[],"categories_sizes":[],"default_left":[0,0,0,0,0,0,0,0,0],"id":85,"left_children":[1,-1,3,5,7,-1,-1,-1,-1],"loss_changes":[1.6517394E0,0E0,6.8513536E-1,3.6084813E-1,2.6380843E-1,0E0,0E0,0E0,0E0],"parents":[2147483647,0,0,2,2,3,3,4,4],"right_children":[2,-1,4,6,8,-1,-1,-1,-1],"split_conditions":[3.58E0,4.639114E-2,1.279E1,1.28E0,8.9E1,-1.8320158E-2,3.857514E-2,5.1358785E-3,-4.1904427E-2],"split_indices":[9,0,0,6,4,0,0,0,0],"split_type":[0,0,0,0,0,0,0,0,0],"sum_hessian":[1.5233477E1,5.7097354E0,9.523742E0,2.9462192E0,6.5775223E0,1.0547131E0,1.8915061E0,1.218323E0,5.359199E0],"tree_param":{"num_deleted":"0","num_feature":"13","num_nodes":"9","size_leaf_vector":"1"}},{"base_weights":[-5.800063E-2,3.567358E-1,-4.5297135E-2,-9.607474E-3,4.530285E-2],"categories":[],"categories_nodes":[],"categories_segments":[],"categories_sizes":[],"default_left":[0,0,0,0,0],"id":86,"left_children":[1,3,-1,-1,-1],"loss_changes":[2.392353E0,3.575598E-1,0E0,0E0,0E0],"parents":[2147483647,0,0,1,1],"right_children":[2,4,-1,-1,-1],"split_conditions":[1.41E0,4.2E0,-4.5297135E-2,-9.607474E-3,4.530285E-2],"split_indices":[6,9,0,0,0],"split_type":[0,0,0,0,0],"sum_hessian":[1.2618087E1,6.202255E0,6.4158325E0,1.0880466E0,5.114208E0],"tree_param":{"num_deleted":"0","num_feature":"13","num_nodes":"5","size_leaf_vector":"1"}},{"base_weights":[-3.5900638E-2,-3.5996988E-1,3.0850014E-1,-4.3300748E-2,-6.1838357E-3,-1.1999625E-2,4.1395586E-2],"categories":[],"categories_nodes":[],"categories_segments":[],"categories_sizes":[],"default_left":[0,0,0,0,0,0,0],"id":87,"left_children":[1,3,5,-1,-1,-1,-1],"loss_changes":[1.6362815E0,1.3658237E-1,3.7337536E-1,0E0,0E0,0E0,0E0],"parents":[2147483647,0,0,1,1,2,2],"right_children":[2,4,6,-1,-1,-1,-1],"split_conditions":[7.6E2,6.8E2,1.303E1,-4.3300748E-2,-6.1838357E-3,-1.1999625E-2,4.1395586E-2],"split_indices":[12,12,0,0,0,0,0],"split_type":[0,0,0,0,0,0,0],"sum_hessian":[1.2665752E1,6.5022E0,6.1635523E0,4.859335E0,1.6428655E0,1.1900713E0,4.9734807E0],"tree_param":{"num_deleted":"0","num_feature":"13","num_nodes":"7","size_leaf_vector":"1"}},{"base_weights":[7.948685E-2,3.9981204E-1,-2.1238713E-1,4.570756E-2,6.833182E-3,1.4055946E-1,-3.5120478E-1,-9.5093455E-3,3.0484596E-2,2.7050779E-3,-4.2612363E-2],"categories":[],"categories_nodes":[],"categories_segments":[],"categories_sizes":[],"default_left":[0,0,0,0,0,0,0,0,0,0,0],"id":88,"left_children":[1,3,5,-1,-1,7,9,-1,-1,-1,-1],"loss_changes":[1.5174955E0,1.140188E-1,4.741747E-1,0E0,0E0,1.5139295E-1,1.9597417E-1,0E0,0E0,0E0,0E0],"parents":[2147483647,0,0,1,1,2,2,5,5,6,6],"right_children":[2,4,6,-1,-1,8,10,-1,-1,-1,-1],"split_conditions":[3.84E0,1.303E1,8.9E1,4.570756E-2,6.833182E-3,1.6E0,5.15E2,-9.5093455E-3,3.0484596E-2,2.7050779E-3,-4.2612363E-2],"split_indices":[9,0,4,0,0,6,12,0,0,0,0],"split_type":[0,0,0,0,0,0,0,0,0,0,0],"sum_hessian":[1.4322605E1,6.6521773E0,7.6704273E0,5.3492045E0,1.302973E0,2.1617045E0,5.508723E0,1.0609905E0,1.1007141E0,1.0163308E0,4.492392E0],"tree_param":{"num_deleted":"0","num_feature":"13","num_nodes":"11","size_leaf_vector":"1"}},{"base_weights":[-5.6767073E-2,3.4947488E-1,-4.472455E-2,-9.181205E-3,4.455911E-2],"categories":[],"categories_nodes":[],"categories_segments":[],"categories_sizes":[],"default_left":[0,0,0,0,0],"id":89,"left_children":[1,3,-1,-1,-1],"loss_changes":[2.1887596E0,3.310681E-1,0E0,0E0,0E0],"parents":[2147483647,0,0,1,1],"right_children":[2,4,-1,-1,-1],"split_conditions":[1.41E0,4.2E0,-4.472455E-2,-9.181205E-3,4.455911E-2],"split_indices":[6,9,0,0,0],"split_type":[0,0,0,0,0],"sum_hessian":[1.1812678E1,5.8409443E0,5.971734E0,1.0526798E0,4.7882643E0],"tree_param":{"num_deleted":"0","num_feature":"13","num_nodes":"5","size_leaf_vector":"1"}},{"base_weights":[-3.6498874E-2,-4.0103555E-2,2.6040152E-1,-2.0050561E-2,4.227824E-2],"categories":[],"categories_nodes":[],"categories_segments":[],"categories_sizes":[],"default_left":[0,0,0,0,0],"id":90,"left_children":[1,-1,3,-1,-1],"loss_changes":[1.5028586E0,0E0,6.631015E-1,0E0,0E0],"parents":[2147483647,0,0,2,2],"right_children":[2,-1,4,-1,-1],"split_conditions":[2.37E0,-4.0103555E-2,1.303E1,-2.0050561E-2,4.227824E-2],"split_indices":[6,0,0,0,0],"split_type":[0,0,0,0,0],"sum_hessian":[1.1920766E1,5.193457E0,6.7273088E0,1.6914517E0,5.0358567E0],"tree_param":{"num_deleted":"0","num_feature":"13","num_nodes":"5","size_leaf_vector":"1"}},{"base_weights":[7.8332976E-2,4.4983592E-2,-1.6417658E-1,1.7748702E-1,-3.2299313E-1,-1.384698E-2,3.5551384E-2,4.9921125E-3,-4.057426E-2],"categories":[],"categories_nodes":[],"categories_segments":[],"categories_sizes":[],"default_left":[0,0,0,0,0,0,0,0,0],"id":91,"left_children":[1,-1,3,5,7,-1,-1,-1,-1],"loss_changes":[1.3802271E0,0E0,5.7313406E-1,2.5520283E-1,2.3145139E-1,0E0,0E0,0E0,0E0],"parents":[2147483647,0,0,2,2,3,3,4,4],"right_children":[2,-1,4,6,8,-1,-1,-1,-1],"split_conditions":[3.58E0,4.4983592E-2,1.279E1,2.01E0,8.9E1,-1.384698E-2,3.5551384E-2,4.9921125E-3,-4.057426E-2],"split_indices":[9,0,0,11,4,0,0,0,0],"split_type":[0,0,0,0,0,0,0,0,0],"sum_hessian":[1.3500287E1,4.994397E0,8.50589E0,2.6618552E0,5.8440347E0,1.0393839E0,1.6224713E0,1.1333333E0,4.7107015E0],"tree_param":{"num_deleted":"0","num_feature":"13","num_nodes":"9","size_leaf_vector":"1"}},{"base_weights":[-5.490943E-2,3.434818E-1,-4.4176325E-2,-8.7467795E-3,4.3885585E-2],"categories":[],"categories_nodes":[],"categories_segments":[],"categories_sizes":[],"default_left":[0,0,0,0,0],"id":92,"left_children":[1,3,-1,-1,-1],"loss_changes":[2.016171E0,3.0646485E-1,0E0,0E0,0E0],"parents":[2147483647,0,0,1,1],"right_children":[2,4,-1,-1,-1],"split_conditions":[1.41E0,4.2E0,-4.4176325E-2,-8.7467795E-3,4.3885585E-2],"split_indices":[6,9,0,0,0],"split_type":[0,0,0,0,0],"sum_hessian":[1.1097348E1,5.5223827E0,5.574966E0,1.0157213E0,4.5066614E0],"tree_param":{"num_deleted":"0","num_feature":"13","num_nodes":"5","size_leaf_vector":"1"}},{"base_weights":[-3.7449647E-2,-3.7520155E-1,2.7062327E-1,-4.2036198E-2,-7.69203E-3,-1.795067E-2,3.8943574E-1,4.2582955E-2,1.1287995E-2],"categories":[],"categories_nodes":[],"categories_segments":[],"categories_sizes":[],"default_left":[0,0,0,0,0,0,0,0,0],"id":93,"left_children":[1,3,5,-1,-1,-1,7,-1,-1],"loss_changes":[1.3691115E0,5.158919E-2,4.417026E-1,0E0,0E0,0E0,1.0466516E-2,0E0,0E0],"parents":[2147483647,0,0,1,1,2,2,6,6],"right_children":[2,4,6,-1,-1,-1,8,-1,-1],"split_conditions":[7.35E2,3.88E0,2.37E0,-4.2036198E-2,-7.69203E-3,-1.795067E-2,3.15E0,4.2582955E-2,1.1287995E-2],"split_indices":[12,1,6,0,0,0,5,0,0],"split_type":[0,0,0,0,0,0,0,0,0],"sum_hessian":[1.1182089E1,5.2301645E0,5.9519243E0,4.186968E0,1.0431966E0,1.1362637E0,4.8156605E0,3.778644E0,1.0370167E0],"tree_param":{"num_deleted":"0","num_feature":"13","num_nodes":"9","size_leaf_vector":"1"}},{"base_weights":[7.800036E-2,3.8671505E-1,-2.0211087E-1,4.425556E-2,6.6796527E-3,1.34890815E-2,-3.370982E-1,4.9573975E-4,-4.117431E-2],"categories":[],"categories_nodes":[],"categories_segments":[],"categories_sizes":[],"default_left":[0,0,0,0,0,0,0,0,0],"id":94,"left_children":[1,3,5,-1,-1,-1,7,-1,-1],"loss_changes":[1.2645532E0,9.316397E-2,4.0256554E-1,0E0,0E0,0E0,1.5244305E-1,0E0,0E0],"parents":[2147483647,0,0,1,1,2,2,6,6],"right_children":[2,4,6,-1,-1,-1,8,-1,-1],"split_conditions":[3.84E0,3.58E0,5.2E2,4.425556E-2,6.6796527E-3,1.34890815E-2,8.9E1,4.9573975E-4,-4.117431E-2],"split_indices":[9,9,12,0,0,0,4,0,0],"split_type":[0,0,0,0,0,0,0,0,0],"sum_hessian":[1.2719589E1,5.869809E0,6.84978E0,4.6711416E0,1.1986676E0,1.9592198E0,4.89056E0,1.043298E0,3.8472621E0],"tree_param":{"num_deleted":"0","num_feature":"13","num_nodes":"9","size_leaf_vector":"1"}},{"base_weights":[-5.385271E-2,3.36942E-1,-4.3594588E-2,4.326637E-2,-7.590551E-3],"categories":[],"categories_nodes":[],"categories_segments":[],"categories_sizes":[],"default_left":[0,0,0,0,0],"id":95,"left_children":[1,3,-1,-1,-1],"loss_changes":[1.8491269E0,2.7784997E-1,0E0,0E0,0E0],"parents":[2147483647,0,0,1,1],"right_children":[2,4,-1,-1,-1],"split_conditions":[1.41E0,8.8E-1,-4.3594588E-2,4.326637E-2,-7.590551E-3],"split_indices":[6,10,0,0,0],"split_type":[0,0,0,0,0],"sum_hessian":[1.0399938E1,5.199844E0,5.2000937E0,4.1821766E0,1.017667E0],"tree_param":{"num_deleted":"0","num_feature":"13","num_nodes":"5","size_leaf_vector":"1"}},{"base_weights":[-3.8098946E-2,-3.435278E-1,2.89201E-1,-4.1512784E-2,-5.3925514E-3,-1.0688416E-2,3.914336E-2],"categories":[],"categories_nodes":[],"categories_segments":[],"categories_sizes":[],"default_left":[0,0,0,0,0,0,0],"id":96,"left_children":[1,3,5,-1,-1,-1,-1],"loss_changes":[1.2525356E0,1.1082518E-1,2.893061E-1,0E0,0E0,0E0,0E0],"parents":[2147483647,0,0,1,1,2,2],"right_children":[2,4,6,-1,-1,-1,-1],"split_conditions":[7.6E2,6.8E2,1.303E1,-4.1512784E-2,-5.3925514E-3,-1.0688416E-2,3.914336E-2],"split_indices":[12,12,0,0,0,0,0],"split_type":[0,0,0,0,0,0,0],"sum_hessian":[1.0535696E1,5.4242907E0,5.1114054E0,4.0015283E0,1.4227624E0,1.0392984E0,4.0721073E0],"tree_param":{"num_deleted":"0","num_feature":"13","num_nodes":"7","size_leaf_vector":"1"}},{"base_weights":[7.6598905E-2,3.7940606E-1,-1.9733456E-1,4.355363E-2,6.4077885E-3,1.2894747E-2,-3.321916E-1,-1.0413737E-4,-4.052354E-2],"categories":[],"categories_nodes":[],"categories_segments":[],"categories_sizes":[],"default_left":[0,0,0,0,0,0,0,0,0],"id":97,"left_children":[1,3,5,-1,-1,-1,7,-1,-1],"loss_changes":[1.1553055E0,8.764714E-2,3.726936E-1,0E0,0E0,0E0,1.3464296E-1,0E0,0E0],"parents":[2147483647,0,0,1,1,2,2,6,6],"right_children":[2,4,6,-1,-1,-1,8,-1,-1],"split_conditions":[3.84E0,3.58E0,8.9E1,4.355363E-2,6.4077885E-3,1.2894747E-2,1.272E1,-1.0413737E-4,-4.052354E-2],"split_indices":[9,9,4,0,0,0,0,0,0],"split_type":[0,0,0,0,0,0,0,0,0],"sum_hessian":[1.2025295E1,5.5287557E0,6.496539E0,4.3697066E0,1.1590493E0,1.9126843E0,4.5838547E0,1.0116612E0,3.5721936E0],"tree_param":{"num_deleted":"0","num_feature":"13","num_nodes":"9","size_leaf_vector":"1"}},{"base_weights":[-5.168706E-2,3.3134013E-1,-4.3035176E-2,-5.8349636E-3,4.2387974E-2],"categories":[],"categories_nodes":[],"categories_segments":[],"categories_sizes":[],"default_left":[0,0,0,0,0],"id":98,"left_children":[1,3,-1,-1,-1],"loss_changes":[1.7090356E0,2.3872882E-1,0E0,0E0,0E0],"parents":[2147483647,0,0,1,1],"right_children":[2,4,-1,-1,-1],"split_conditions":[1.41E0,4.36E0,-4.3035176E-2,-5.8349636E-3,4.2387974E-2],"split_indices":[6,9,0,0,0],"split_type":[0,0,0,0,0],"sum_hessian":[9.8001585E0,4.9341455E0,4.866013E0,1.0177599E0,3.9163857E0],"tree_param":{"num_deleted":"0","num_feature":"13","num_nodes":"5","size_leaf_vector":"1"}},{"base_weights":[-3.8851004E-2,-3.824914E-2,2.4207689E-1,-1.8594455E-2,4.0125202E-2],"categories":[],"categories_nodes":[],"categories_segments":[],"categories_sizes":[],"default_left":[0,0,0,0,0],"id":99,"left_children":[1,-1,3,-1,-1],"loss_changes":[1.1491206E0,0E0,5.2658284E-1,0E0,0E0],"parents":[2147483647,0,0,2,2],"right_children":[2,-1,4,-1,-1],"split_conditions":[2.37E0,-3.824914E-2,1.303E1,-1.8594455E-2,4.0125202E-2],"split_indices":[6,0,0,0,0],"split_type":[0,0,0,0,0],"sum_hessian":[9.944151E0,4.310219E0,5.633932E0,1.4816376E0,4.1522946E0],"tree_param":{"num_deleted":"0","num_feature":"13","num_nodes":"5","size_leaf_vector":"1"}},{"base_weights":[7.49764E-2,3.7194303E-1,-1.9260746E-1,4.2863976E-2,5.866228E-3,1.282717E-2,-3.248988E-1,-6.9574284E-4,-3.9786052E-2],"categories":[],"categories_nodes":[],"categories_segments":[],"categories_sizes":[],"default_left":[0,0,0,0,0,0,0,0,0],"id":100,"left_children":[1,3,5,-1,-1,-1,7,-1,-1],"loss_changes":[1.0559713E0,8.520019E-2,3.4624222E-1,0E0,0E0,0E0,1.2164879E-1,0E0,0E0],"parents":[2147483647,0,0,1,1,2,2,6,6],"right_children":[2,4,6,-1,-1,-1,8,-1,-1],"split_conditions":[3.84E0,1.303E1,5.2E2,4.2863976E-2,5.866228E-3,1.282717E-2,1.279E1,-6.9574284E-4,-3.9786052E-2],"split_indices":[9,0,12,0,0,0,0,0,0],"split_type":[0,0,0,0,0,0,0,0,0],"sum_hessian":[1.1387229E1,5.2124295E0,6.1748E0,4.101857E0,1.1105725E0,1.8114421E0,4.3633575E0,1.0188644E0,3.3444932E0],"tree_param":{"num_deleted":"0","num_feature":"13","num_nodes":"9","size_leaf_vector":"1"}},{"base_weights":[-4.9112994E-2,3.2617033E-1,-4.2474125E-2,4.1897003E-2,-5.203874E-3],"categories":[],"categories_nodes":[],"categories_segments":[],"categories_sizes":[],"default_left":[0,0,0,0,0],"id":101,"left_children":[1,3,-1,-1,-1],"loss_changes":[1.5838791E0,2.2166681E-1,0E0,0E0,0E0],"parents":[2147483647,0,0,1,1],"right_children":[2,4,-1,-1,-1],"split_conditions":[1.41E0,8.6E-1,-4.2474125E-2,4.1897003E-2,-5.203874E-3],"split_indices":[6,10,0,0,0],"split_type":[0,0,0,0,0],"sum_hessian":[9.253046E0,4.694512E0,4.5585337E0,3.683044E0,1.0114678E0],"tree_param":{"num_deleted":"0","num_feature":"13","num_nodes":"5","size_leaf_vector":"1"}},{"base_weights":[-3.9788224E-2,-3.3392233E-1,2.7814746E-1,-4.0347554E-2,-5.1579345E-3,3.6871765E-2,-6.5835672E-3],"categories":[],"categories_nodes":[],"categories_segments":[],"categories_sizes":[],"default_left":[0,0,0,0,0,0,0],"id":102,"left_children":[1,3,5,-1,-1,-1,-1],"loss_changes":[1.0634387E0,9.398246E-2,1.966548E-1,0E0,0E0,0E0,0E0],"parents":[2147483647,0,0,1,1,2,2],"right_children":[2,4,6,-1,-1,-1,-1],"split_conditions":[7.6E2,6.8E2,2E1,-4.0347554E-2,-5.1579345E-3,3.6871765E-2,-6.5835672E-3],"split_indices":[12,12,3,0,0,0,0],"split_type":[0,0,0,0,0,0,0],"sum_hessian":[9.378565E0,4.8455157E0,4.5330496E0,3.5435588E0,1.3019569E0,3.5313456E0,1.0017037E0],"tree_param":{"num_deleted":"0","num_feature":"13","num_nodes":"7","size_leaf_vector":"1"}},{"base_weights":[7.4216865E-2,2.757969E-1,-2.9871392E-1,3.9321262E-2,-3.9179437E-2,-2.9073735E-3,-3.693751E-2,1.2277192E-2,-1.8103171E-2],"categories":[],"categories_nodes":[],"categories_segments":[],"categories_sizes":[],"default_left":[0,0,0,0,0,0,0,0,0],"id":103,"left_children":[1,3,5,-1,7,-1,-1,-1,-1],"loss_changes":[9.6919775E-1,3.1783336E-1,7.727006E-2,0E0,9.413083E-2,0E0,0E0,0E0,0E0],"parents":[2147483647,0,0,1,1,2,2,4,4],"right_children":[2,4,6,-1,8,-1,-1,-1,-1],"split_conditions":[4.9E0,7.2E2,5.2E2,3.9321262E-2,1.303E1,-2.9073735E-3,-3.693751E-2,1.2277192E-2,-1.8103171E-2],"split_indices":[9,12,12,0,0,0,0,0,0],"split_type":[0,0,0,0,0,0,0,0,0],"sum_hessian":[1.079659E1,7.177436E0,3.6191535E0,5.0474706E0,2.1299653E0,1.0445697E0,2.5745838E0,1.0573303E0,1.072635E0],"tree_param":{"num_deleted":"0","num_feature":"13","num_nodes":"9","size_leaf_vector":"1"}},{"base_weights":[-4.760679E-2,3.2001874E-1,-4.188334E-2,-3.1788596E-3,4.090963E-2],"categories":[],"categories_nodes":[],"categories_segments":[],"categories_sizes":[],"default_left":[0,0,0,0,0],"id":104,"left_children":[1,3,-1,-1,-1],"loss_changes":[1.460036E0,1.8375617E-1,0E0,0E0,0E0],"parents":[2147483647,0,0,1,1],"right_children":[2,4,-1,-1,-1],"split_conditions":[1.41E0,4.45E0,-4.188334E-2,-3.1788596E-3,4.090963E-2],"split_indices":[6,9,0,0,0],"split_type":[0,0,0,0,0],"sum_hessian":[8.716264E0,4.4486804E0,4.2675834E0,1.0287641E0,3.4199162E0],"tree_param":{"num_deleted":"0","num_feature":"13","num_nodes":"5","size_leaf_vector":"1"}},{"base_weights":[-3.9209917E-2,-3.7009005E-2,2.3027408E-1,-1.7699482E-2,3.8701534E-2],"categories":[],"categories_nodes":[],"categories_segments":[],"categories_sizes":[],"default_left":[0,0,0,0,0],"id":105,"left_children":[1,-1,3,-1,-1],"loss_changes":[9.6722215E-1,0E0,4.5585588E-1,0E0,0E0],"parents":[2147483647,0,0,2,2],"right_children":[2,-1,4,-1,-1],"split_conditions":[2.37E0,-3.7009005E-2,1.303E1,-1.7699482E-2,3.8701534E-2],"split_indices":[6,0,0,0,0],"split_type":[0,0,0,0,0],"sum_hessian":[8.891562E0,3.8235595E0,5.068003E0,1.3725138E0,3.6954896E0],"tree_param":{"num_deleted":"0","num_feature":"13","num_nodes":"5","size_leaf_vector":"1"}},{"base_weights":[7.13292E-2,4.162651E-2,-1.4849855E-1,1.5919288E-1,-3.0009788E-1,-6.3416264E-3,2.9621705E-2,6.7421474E-4,-3.7373077E-2],"categories":[],"categories_nodes":[],"categories_segments":[],"categories_sizes":[],"default_left":[0,0,0,0,0,0,0,0,0],"id":106,"left_children":[1,-1,3,5,7,-1,-1,-1,-1],"loss_changes":[9.156725E-1,0E0,4.0296513E-1,1.1538084E-1,1.2560624E-1,0E0,0E0,0E0,0E0],"parents":[2147483647,0,0,2,2,3,3,4,4],"right_children":[2,-1,4,6,8,-1,-1,-1,-1],"split_conditions":[3.58E0,4.162651E-2,1.279E1,9.4E-1,9E1,-6.3416264E-3,2.9621705E-2,6.7421474E-4,-3.7373077E-2],"split_indices":[9,0,0,10,4,0,0,0,0],"split_type":[0,0,0,0,0,0,0,0,0],"sum_hessian":[1.0260682E1,3.6460302E0,6.6146517E0,2.1667829E0,4.447869E0,1.0302427E0,1.1365402E0,1.0366052E0,3.4112637E0],"tree_param":{"num_deleted":"0","num_feature":"13","num_nodes":"9","size_leaf_vector":"1"}},{"base_weights":[-4.5010466E-2,3.1380054E-1,-4.1259736E-2,4.040838E-2,-3.0328154E-3],"categories":[],"categories_nodes":[],"categories_segments":[],"categories_sizes":[],"default_left":[0,0,0,0,0],"id":107,"left_children":[1,3,-1,-1,-1],"loss_changes":[1.3466247E0,1.7499089E-1,0E0,0E0,0E0],"parents":[2147483647,0,0,1,1],"right_children":[2,4,-1,-1,-1],"split_conditions":[1.41E0,8.4E-1,-4.1259736E-2,4.040838E-2,-3.0328154E-3],"split_indices":[6,10,0,0,0],"split_type":[0,0,0,0,0],"sum_hessian":[8.22824E0,4.2378697E0,3.9903705E0,3.2191045E0,1.0187651E0],"tree_param":{"num_deleted":"0","num_feature":"13","num_nodes":"5","size_leaf_vector":"1"}},{"base_weights":[-4.0605333E-2,-3.2198852E-1,2.6501358E-1,-3.9104972E-2,-4.6158526E-3,3.6629662E-2,-1.5572045E-3],"categories":[],"categories_nodes":[],"categories_segments":[],"categories_sizes":[],"default_left":[0,0,0,0,0,0,0],"id":108,"left_children":[1,3,5,-1,-1,-1,-1],"loss_changes":[8.924168E-1,8.3630085E-2,1.4914274E-1,0E0,0E0,0E0,0E0],"parents":[2147483647,0,0,1,1,2,2],"right_children":[2,4,6,-1,-1,-1,-1],"split_conditions":[7.6E2,6.8E2,1.9E1,-3.9104972E-2,-4.6158526E-3,3.6629662E-2,-1.5572045E-3],"split_indices":[12,12,3,0,0,0,0],"split_type":[0,0,0,0,0,0,0],"sum_hessian":[8.385149E0,4.3377876E0,4.047361E0,3.1351109E0,1.2026768E0,2.749428E0,1.2979331E0],"tree_param":{"num_deleted":"0","num_feature":"13","num_nodes":"7","size_leaf_vector":"1"}},{"base_weights":[7.116393E-2,4.0921535E-2,-1.4357078E-1,1.5619096E-1,-2.9304904E-1,-5.0524375E-3,2.8592942E-2,6.79076E-4,-3.660093E-2],"categories":[],"categories_nodes":[],"categories_segments":[],"categories_sizes":[],"default_left":[0,0,0,0,0,0,0,0,0],"id":109,"left_children":[1,-1,3,5,7,-1,-1,-1,-1],"loss_changes":[8.37123E-1,0E0,3.7276214E-1,9.70621E-2,1.1661717E-1,0E0,0E0,0E0,0E0],"parents":[2147483647,0,0,2,2,3,3,4,4],"right_children":[2,-1,4,6,8,-1,-1,-1,-1],"split_conditions":[3.58E0,4.0921535E-2,1.279E1,1.59E0,9E1,-5.0524375E-3,2.8592942E-2,6.79076E-4,-3.660093E-2],"split_indices":[9,0,0,6,4,0,0,0,0],"split_type":[0,0,0,0,0,0,0,0,0],"sum_hessian":[9.722646E0,3.42503E0,6.297616E0,2.0805004E0,4.217116E0,1.0376908E0,1.0428096E0,1.0028197E0,3.214296E0],"tree_param":{"num_deleted":"0","num_feature":"13","num_nodes":"9","size_leaf_vector":"1"}},{"base_weights":[-4.3597516E-2,3.0783185E-1,-4.0651944E-2,3.938527E-2,-2.795236E-4],"categories":[],"categories_nodes":[],"categories_segments":[],"categories_sizes":[],"default_left":[0,0,0,0,0],"id":110,"left_children":[1,3,-1,-1,-1],"loss_changes":[1.2425888E0,1.352449E-1,0E0,0E0,0E0],"parents":[2147483647,0,0,1,1],"right_children":[2,4,-1,-1,-1],"split_conditions":[1.41E0,8.2E-1,-4.0651944E-2,3.938527E-2,-2.795236E-4],"split_indices":[6,10,0,0,0],"split_type":[0,0,0,0,0],"sum_hessian":[7.7614603E0,4.0202827E0,3.7411773E0,2.9385836E0,1.0816991E0],"tree_param":{"num_deleted":"0","num_feature":"13","num_nodes":"5","size_leaf_vector":"1"}},{"base_weights":[-4.1458655E-2,-3.5817083E-2,2.1859562E-1,-1.6892E-2,3.723761E-2],"categories":[],"categories_nodes":[],"categories_segments":[],"categories_sizes":[],"default_left":[0,0,0,0,0],"id":111,"left_children":[1,-1,3,-1,-1],"loss_changes":[8.1461155E-1,0E0,3.9245257E-1,0E0,0E0],"parents":[2147483647,0,0,2,2],"right_children":[2,-1,4,-1,-1],"split_conditions":[2.37E0,-3.5817083E-2,1.303E1,-1.6892E-2,3.723761E-2],"split_indices":[6,0,0,0,0],"split_type":[0,0,0,0,0],"sum_hessian":[7.939971E0,3.4098845E0,4.5300865E0,1.2590141E0,3.2710721E0],"tree_param":{"num_deleted":"0","num_feature":"13","num_nodes":"5","size_leaf_vector":"1"}},{"base_weights":[6.9965005E-2,4.0239718E-2,-1.402451E-1,1.5171531E-2,-2.8687826E-1,-3.8068034E-3,-3.747005E-2],"categories":[],"categories_nodes":[],"categories_segments":[],"categories_sizes":[],"default_left":[0,0,0,0,0,0,0],"id":112,"left_children":[1,-1,3,-1,5,-1,-1],"loss_changes":[7.71345E-1,0E0,3.4358287E-1,0E0,9.524399E-2,0E0,0E0],"parents":[2147483647,0,0,2,2,4,4],"right_children":[2,-1,4,-1,6,-1,-1],"split_conditions":[3.58E0,4.0239718E-2,1.279E1,1.5171531E-2,9.5E1,-3.8068034E-3,-3.747005E-2],"split_indices":[9,0,0,0,4,0,0],"split_type":[0,0,0,0,0,0,0],"sum_hessian":[9.230462E0,3.22155E0,6.0089116E0,1.9973472E0,4.0115647E0,1.420525E0,2.5910397E0],"tree_param":{"num_deleted":"0","num_feature":"13","num_nodes":"7","size_leaf_vector":"1"}},{"base_weights":[-4.128827E-2,3.024489E-1,-4.0060908E-2,3.875507E-2,-2.1524036E-4],"categories":[],"categories_nodes":[],"categories_segments":[],"categories_sizes":[],"default_left":[0,0,0,0,0],"id":113,"left_children":[1,3,-1,-1,-1],"loss_changes":[1.1536198E0,1.263499E-1,0E0,0E0,0E0],"parents":[2147483647,0,0,1,1],"right_children":[2,4,-1,-1,-1],"split_conditions":[1.41E0,8.2E-1,-4.0060908E-2,3.875507E-2,-2.1524036E-4],"split_indices":[6,10,0,0,0],"split_type":[0,0,0,0,0],"sum_hessian":[7.359161E0,3.8420324E0,3.5171287E0,2.7901719E0,1.0518606E0],"tree_param":{"num_deleted":"0","num_feature":"13","num_nodes":"5","size_leaf_vector":"1"}},{"base_weights":[-4.266844E-2,-3.3529248E-2,2.3191561E-1,-5.16161E-3,3.2498818E-2],"categories":[],"categories_nodes":[],"categories_segments":[],"categories_sizes":[],"default_left":[0,0,0,0,0],"id":114,"left_children":[1,-1,3,-1,-1],"loss_changes":[7.613135E-1,0E0,1.4819252E-1,0E0,0E0],"parents":[2147483647,0,0,2,2],"right_children":[2,-1,4,-1,-1],"split_conditions":[7.35E2,-3.3529248E-2,2.43E0,-5.16161E-3,3.2498818E-2],"split_indices":[12,0,6,0,0],"split_type":[0,0,0,0,0],"sum_hessian":[7.5072174E0,3.5271955E0,3.9800217E0,1.093687E0,2.8863347E0],"tree_param":{"num_deleted":"0","num_feature":"13","num_nodes":"5","size_leaf_vector":"1"}},{"base_weights":[6.8930015E-2,3.443002E-1,-1.7485306E-1,3.9197434E-2,8.034961E-3,1.1472068E-2,-3.0056682E-1,-5.040541E-3,-3.6020715E-2],"categories":[],"categories_nodes":[],"categories_segments":[],"categories_sizes":[],"default_left":[0,0,0,0,0,0,0,0,0],"id":115,"left_children":[1,3,5,-1,-1,-1,7,-1,-1],"loss_changes":[7.1710646E-1,3.056544E-2,2.4757305E-1,0E0,0E0,0E0,4.6861976E-2,0E0,0E0],"parents":[2147483647,0,0,1,1,2,2,6,6],"right_children":[2,4,6,-1,-1,-1,8,-1,-1],"split_conditions":[3.84E0,3.4E0,5.2E2,3.9197434E-2,8.034961E-3,1.1472068E-2,9.2E1,-5.040541E-3,-3.6020715E-2],"split_indices":[9,9,12,0,0,0,4,0,0],"split_type":[0,0,0,0,0,0,0,0,0],"sum_hessian":[8.785472E0,3.9318485E0,4.853623E0,2.9195058E0,1.0123428E0,1.4957358E0,3.3578873E0,1.0016441E0,2.3562431E0],"tree_param":{"num_deleted":"0","num_feature":"13","num_nodes":"9","size_leaf_vector":"1"}},{"base_weights":[-3.9070714E-2,2.9711914E-1,-3.9449047E-2,3.8105488E-2,-1.1339361E-4],